{
  "layers": [
    {
      "neurons": [
        {
          "threshold": 0,
          "weights": [
            1
          ]
        },
        {
          "threshold": 0,
          "weights": [
            1
          ]
        },
        {
          "threshold": 0,
          "weights": [
            1
          ]
        },
        {
          "threshold": 0,
          "weights": [
            1
          ]
        },
        {
          "threshold": 0,
          "weights": [
            1
          ]
        },
        {
          "threshold": 0,
          "weights": [
            1
          ]
        },
        {
          "threshold": 0,
          "weights": [
            1
          ]
        },
        {
          "threshold": 0,
          "weights": [
            1
          ]
        },
        {
          "threshold": 0,
          "weights": [
            1
          ]
        },
        {
          "threshold": 0,
          "weights": [
            1
          ]
        },
        {
          "threshold": 0,
          "weights": [
            1
          ]
        },
        {
          "threshold": 0,
          "weights": [
            1
          ]
        },
        {
          "threshold": 0,
          "weights": [
            1
          ]
        },
        {
          "threshold": 0,
          "weights": [
            1
          ]
        },
        {
          "threshold": 0,
          "weights": [
            1
          ]
        },
        {
          "threshold": 0,
          "weights": [
            1
          ]
        },
        {
          "threshold": 0,
          "weights": [
            1
          ]
        },
        {
          "threshold": 0,
          "weights": [
            1
          ]
        },
        {
          "threshold": 0,
          "weights": [
            1
          ]
        },
        {
          "threshold": 0,
          "weights": [
            1
          ]
        },
        {
          "threshold": 0,
          "weights": [
            1
          ]
        },
        {
          "threshold": 0,
          "weights": [
            1
          ]
        },
        {
          "threshold": 0,
          "weights": [
            1
          ]
        },
        {
          "threshold": 0,
          "weights": [
            1
          ]
        },
        {
          "threshold": 0,
          "weights": [
            1
          ]
        },
        {
          "threshold": 0,
          "weights": [
            1
          ]
        },
        {
          "threshold": 0,
          "weights": [
            1
          ]
        },
        {
          "threshold": 0,
          "weights": [
            1
          ]
        },
        {
          "threshold": 0,
          "weights": [
            1
          ]
        },
        {
          "threshold": 0,
          "weights": [
            1
          ]
        },
        {
          "threshold": 0,
          "weights": [
            1
          ]
        },
        {
          "threshold": 0,
          "weights": [
            1
          ]
        },
        {
          "threshold": 0,
          "weights": [
            1
          ]
        },
        {
          "threshold": 0,
          "weights": [
            1
          ]
        },
        {
          "threshold": 0,
          "weights": [
            1
          ]
        },
        {
          "threshold": 0,
          "weights": [
            1
          ]
        },
        {
          "threshold": 0,
          "weights": [
            1
          ]
        },
        {
          "threshold": 0,
          "weights": [
            1
          ]
        },
        {
          "threshold": 0,
          "weights": [
            1
          ]
        },
        {
          "threshold": 0,
          "weights": [
            1
          ]
        },
        {
          "threshold": 0,
          "weights": [
            1
          ]
        },
        {
          "threshold": 0,
          "weights": [
            1
          ]
        },
        {
          "threshold": 0,
          "weights": [
            1
          ]
        },
        {
          "threshold": 0,
          "weights": [
            1
          ]
        },
        {
          "threshold": 0,
          "weights": [
            1
          ]
        },
        {
          "threshold": 0,
          "weights": [
            1
          ]
        },
        {
          "threshold": 0,
          "weights": [
            1
          ]
        },
        {
          "threshold": 0,
          "weights": [
            1
          ]
        },
        {
          "threshold": 0,
          "weights": [
            1
          ]
        },
        {
          "threshold": 0,
          "weights": [
            1
          ]
        },
        {
          "threshold": 0,
          "weights": [
            1
          ]
        },
        {
          "threshold": 0,
          "weights": [
            1
          ]
        },
        {
          "threshold": 0,
          "weights": [
            1
          ]
        },
        {
          "threshold": 0,
          "weights": [
            1
          ]
        },
        {
          "threshold": 0,
          "weights": [
            1
          ]
        },
        {
          "threshold": 0,
          "weights": [
            1
          ]
        },
        {
          "threshold": 0,
          "weights": [
            1
          ]
        },
        {
          "threshold": 0,
          "weights": [
            1
          ]
        },
        {
          "threshold": 0,
          "weights": [
            1
          ]
        },
        {
          "threshold": 0,
          "weights": [
            1
          ]
        },
        {
          "threshold": 0,
          "weights": [
            1
          ]
        },
        {
          "threshold": 0,
          "weights": [
            1
          ]
        },
        {
          "threshold": 0,
          "weights": [
            1
          ]
        },
        {
          "threshold": 0,
          "weights": [
            1
          ]
        },
        {
          "threshold": 0,
          "weights": [
            1
          ]
        },
        {
          "threshold": 0,
          "weights": [
            1
          ]
        },
        {
          "threshold": 0,
          "weights": [
            1
          ]
        },
        {
          "threshold": 0,
          "weights": [
            1
          ]
        },
        {
          "threshold": 0,
          "weights": [
            1
          ]
        },
        {
          "threshold": 0,
          "weights": [
            1
          ]
        },
        {
          "threshold": 0,
          "weights": [
            1
          ]
        },
        {
          "threshold": 0,
          "weights": [
            1
          ]
        },
        {
          "threshold": 0,
          "weights": [
            1
          ]
        },
        {
          "threshold": 0,
          "weights": [
            1
          ]
        },
        {
          "threshold": 0,
          "weights": [
            1
          ]
        },
        {
          "threshold": 0,
          "weights": [
            1
          ]
        },
        {
          "threshold": 0,
          "weights": [
            1
          ]
        },
        {
          "threshold": 0,
          "weights": [
            1
          ]
        },
        {
          "threshold": 0,
          "weights": [
            1
          ]
        },
        {
          "threshold": 0,
          "weights": [
            1
          ]
        },
        {
          "threshold": 0,
          "weights": [
            1
          ]
        },
        {
          "threshold": 0,
          "weights": [
            1
          ]
        },
        {
          "threshold": 0,
          "weights": [
            1
          ]
        },
        {
          "threshold": 0,
          "weights": [
            1
          ]
        },
        {
          "threshold": 0,
          "weights": [
            1
          ]
        },
        {
          "threshold": 0,
          "weights": [
            1
          ]
        },
        {
          "threshold": 0,
          "weights": [
            1
          ]
        },
        {
          "threshold": 0,
          "weights": [
            1
          ]
        },
        {
          "threshold": 0,
          "weights": [
            1
          ]
        },
        {
          "threshold": 0,
          "weights": [
            1
          ]
        },
        {
          "threshold": 0,
          "weights": [
            1
          ]
        },
        {
          "threshold": 0,
          "weights": [
            1
          ]
        },
        {
          "threshold": 0,
          "weights": [
            1
          ]
        },
        {
          "threshold": 0,
          "weights": [
            1
          ]
        },
        {
          "threshold": 0,
          "weights": [
            1
          ]
        },
        {
          "threshold": 0,
          "weights": [
            1
          ]
        },
        {
          "threshold": 0,
          "weights": [
            1
          ]
        },
        {
          "threshold": 0,
          "weights": [
            1
          ]
        },
        {
          "threshold": 0,
          "weights": [
            1
          ]
        },
        {
          "threshold": 0,
          "weights": [
            1
          ]
        },
        {
          "threshold": 0,
          "weights": [
            1
          ]
        },
        {
          "threshold": 0,
          "weights": [
            1
          ]
        },
        {
          "threshold": 0,
          "weights": [
            1
          ]
        },
        {
          "threshold": 0,
          "weights": [
            1
          ]
        }
      ]
    },
    {
      "neurons": [
        {
          "threshold": -1.0229107968785154,
          "weights": [
            -0.24135843280738664,
            -0.2569663856511845,
            0.6238147576291305,
            -0.28906071445555226,
            -0.6058055132138971,
            0.32119252020383,
            -0.8128905919033987,
            -0.9090017463154876,
            -0.49901892058885167,
            -0.2280790287184258,
            -0.6681436947135444,
            -0.09825358855753623,
            0.015288597286747694,
            -0.47958944452205254,
            0.3889787675627007,
            0.7862319865497867,
            -0.49367970859031135,
            0.37015727192678294,
            -0.7398875448154686,
            -0.9407434501600854,
            -0.25841424863644386,
            0.5866930526035066,
            0.897231437001251,
            0.8079299982270379,
            0.6422779788683742,
            -0.608897888482978,
            0.07845360931912475,
            0.4083921649700006,
            0.8961424162264665,
            -0.8755260660708724,
            -0.5299431913257883,
            -0.7930009211339635,
            -0.3758890703915291,
            -0.3966421638380281,
            -0.9780470882037001,
            0.23824068075769797,
            -0.20335305905335171,
            0.4500166396676853,
            -0.11490386040883101,
            -0.8705572119946902,
            -0.5245346987135303,
            -0.4344491759159962,
            0.07685105001877536,
            -0.6237465850089295,
            -0.22326148013435615,
            0.41912372886993954,
            -0.5295655116061914,
            -0.3836712583612361,
            0.29212620041988907,
            0.9613157949297548,
            0.03514960934302002,
            0.08541123405099572,
            -0.4233160875480773,
            0.25241712144903894,
            -0.056892228397887504,
            0.9456090075319465,
            -0.5928952470786936,
            -0.6044300069032401,
            0.9393068952884646,
            0.3027044308251837,
            0.7870439650604871,
            0.9177605728033915,
            0.7064168120626984,
            -0.7688231359842116,
            -0.39374376459740623,
            0.631503461119778,
            0.8022906056845276,
            -0.5832291613507111,
            0.9692404603487051,
            -0.04688869831225917,
            -0.6535206882794242,
            0.295033253389378,
            -0.715237639237982,
            -0.8896796849133398,
            -0.06948667273648954,
            0.912292864240913,
            0.5889258803730505,
            -0.7014412821195863,
            -0.8451979168949549,
            -0.9892975486694234,
            0.21281769257980776,
            0.21539231389810742,
            -0.507017274337638,
            -0.6018479073972923,
            0.17863106204372792,
            -0.8276743748794829,
            0.5306403646821015,
            0.969039150086944,
            -0.06071776825337948,
            0.4359702289719737,
            0.186779300114081,
            -0.16899065350893738,
            -0.05937540673445003,
            0.12958348336214165,
            -0.6174565981840999,
            -0.6703291461144815,
            -0.37513003582216936,
            0.785794840904173,
            -0.5164888387243368,
            -0.42386941338851086,
            0.1377352469212108,
            0.21795654888000482,
            -0.9937628992544203,
            -0.6604114936781129
          ]
        },
        {
          "threshold": 1.5106888203902198,
          "weights": [
            -0.2034498648796026,
            -0.332698452732619,
            0.47128563270645896,
            -1.1132585966906503,
            -0.9998663572569305,
            0.7510222441463671,
            -1.8598961973546568,
            -1.1624801270758562,
            -1.0058446150569103,
            0.40581739819256185,
            -1.8752264987284644,
            -0.9878204670353644,
            -1.0918908879674183,
            -0.4709620915741858,
            0.7800012845783092,
            -1.0618027045234781,
            0.1475912180898578,
            -0.9073620153743207,
            -2.28186373961849,
            0.6180132537458891,
            2.0518961674779557,
            -3.0483842162433556,
            1.251263262837865,
            2.6850060458897853,
            0.24703364428064642,
            -2.6961107981380374,
            -1.36257628596718,
            0.11725629890279539,
            0.3160057051474846,
            -2.414425338914144,
            -1.2161101423944867,
            1.4055459018640397,
            0.8748766305477964,
            -0.23762064666073715,
            -1.2260754609387996,
            0.8597976576607189,
            0.4752044153641466,
            -2.550950997510443,
            -0.2797432701363115,
            -0.4079644598372727,
            0.28963297272656074,
            -0.898014502191347,
            -1.1900505414608642,
            0.24725897436731772,
            0.004053939516294324,
            -2.233476144011834,
            -0.7178893343930044,
            1.1904304212305352,
            0.8947719919399023,
            -0.009202407994578768,
            -2.123820149219238,
            0.1060580852881773,
            0.14125961315825136,
            -1.3836005230964143,
            0.9058664203614895,
            0.5503505177000265,
            0.04613969842866664,
            0.6585300986897147,
            -1.26655977351971,
            2.2440024524436177,
            0.4767929726448585,
            -0.4629203749839765,
            1.699681174424423,
            1.9782122467253886,
            -0.16185448817887468,
            -0.5397745422577819,
            0.45031101918672417,
            -0.27416184467789084,
            0.5429372534609163,
            -0.17003608561137784,
            1.3345236358765549,
            -0.02978623209968833,
            -1.2837669002714585,
            0.3542216625756605,
            0.8162112382540928,
            0.27073595365115366,
            1.5789192770526002,
            1.1663325997570924,
            0.9968533084512387,
            0.7374711246782404,
            1.5546529033213952,
            0.8786105123971379,
            0.465161683616317,
            0.9338911090878589,
            -0.8174599505093245,
            1.105092808216659,
            2.2153032983666754,
            0.04814403407080663,
            -0.29870450510740676,
            2.0653973191131634,
            1.097971707052091,
            0.6576321771712111,
            -0.9210322762562508,
            -0.8165759444347314,
            1.0603714113875584,
            -1.5607122674322216,
            -0.15028731967490425,
            2.0104540230218118,
            0.03839707814913044,
            -1.650425377269784,
            -0.6421853817540629,
            -1.1860740387116753,
            -0.81906304406116,
            1.593982901492498
          ]
        },
        {
          "threshold": 0.6227072166437481,
          "weights": [
            -0.7649118739203945,
            0.843019133925995,
            0.5395666300308154,
            0.9507479060286791,
            1.1895302954273341,
            0.36335549718741283,
            -1.9551036483567075,
            -2.4388708308087756,
            -0.3916406685120649,
            -0.2058587678879151,
            1.1743620928749066,
            0.37319496682516307,
            1.5984760604980348,
            0.9110921431851916,
            -1.1533134832587726,
            -1.4404320108929358,
            1.5582741583001412,
            0.712380472727609,
            0.2696558404992436,
            -0.5923473078533659,
            -0.23111931501044347,
            0.07760901084803257,
            1.7871375597573467,
            0.879853149714219,
            0.6923886379170593,
            -0.1054848717760238,
            -0.811734441042763,
            -0.5281504400961917,
            0.07771167795707269,
            1.1572651211605713,
            2.1872657950900747,
            2.873905162009693,
            0.13528719242902193,
            0.21250578816044385,
            -0.20771122457913793,
            0.29748786788943743,
            -1.9696470432937372,
            0.7454598617191753,
            1.5836142852692314,
            1.8760795046864998,
            0.7834984057111694,
            -0.32901635068008667,
            -2.1804149936589177,
            -2.2520523311834575,
            -3.7736283063469735,
            -1.5642393066428848,
            0.5860430027879404,
            0.3108065403502523,
            0.2824203995444492,
            0.1598585237026947,
            -0.7742765521877809,
            -0.953243425956188,
            -1.4452971320600956,
            -1.1017960336148809,
            0.30747221571223027,
            0.3457872952617372,
            -0.06780042539335165,
            0.24578435352331715,
            -0.07131297298753173,
            -0.046430407694147774,
            0.8186027825660971,
            1.3157301789820122,
            -0.9625271997860984,
            -0.6259673583308256,
            0.25867592559161817,
            -0.7020672783085602,
            -1.665953758653933,
            -0.1861634804062302,
            1.383864248535463,
            1.2101446477896636,
            -1.1115624121441374,
            0.10245889516825069,
            -1.4471923626469438,
            -1.9845495447946107,
            -0.9768003733045503,
            -0.049073693411174575,
            0.16104346830335597,
            0.011569923898306316,
            -1.4032896198444909,
            -1.024992324548956,
            -0.21128484987092563,
            0.2269472303290922,
            -1.4506485032287129,
            0.951547005893751,
            0.9556776856222575,
            0.731352724863258,
            -0.16562830574307014,
            0.746311018277918,
            2.540678495276879,
            -0.8488427822384701,
            -1.1492522267140108,
            -0.04381821593624606,
            0.2497966213857485,
            -0.008235301864123237,
            0.0012828908576339106,
            1.035961547043365,
            1.2750298944460572,
            0.6678390197413686,
            0.5664372732106281,
            0.7098795431585375,
            -1.5669356675214938,
            0.13582337802740996,
            1.3502447184653847,
            0.6586016466497213
          ]
        },
        {
          "threshold": 0.9227303246419314,
          "weights": [
            0.7716043651414326,
            0.762704605390739,
            1.1183692383191115,
            -0.8252717262162539,
            -0.7750162893346498,
            -0.48869175879879856,
            0.44589764009068333,
            0.7516561690348111,
            0.5020984920942635,
            -0.46379195936449785,
            -1.3064229300787376,
            -0.1926346327191806,
            -0.3568671259718499,
            -1.7557281816268118,
            -1.5140583381705393,
            -0.8058510874153482,
            0.10974256116879658,
            -1.5325043362520172,
            -0.6679006059513422,
            -0.4217114154728087,
            0.9786702708761894,
            -2.0844947649217875,
            -1.744996556859586,
            -1.2348734123347702,
            -1.9469091954725635,
            -1.4148088877170082,
            0.3799453037972704,
            0.31284901165355866,
            0.11259841457216745,
            0.5585493955278928,
            -0.03211253269682091,
            -1.2560957358391878,
            -1.78082753253046,
            -0.23017534303317863,
            1.0032942632913415,
            0.4370183230566126,
            -1.086950632025096,
            0.6704025748276186,
            2.231136808665726,
            0.1229499297633089,
            -0.17405131403710158,
            0.005152983950145474,
            -0.27501103854280057,
            0.9538546480625157,
            -1.137290240027575,
            0.9836282026231428,
            1.9834044191357985,
            0.4868560988141913,
            0.2705182656990606,
            -0.41326044529934575,
            -0.49625495082982585,
            0.01272765947163483,
            -1.7954708289663093,
            -0.6915166428498967,
            0.7717567064875666,
            -1.0376731856765355,
            -1.6978637296312353,
            0.6863396557565935,
            1.7588558932415383,
            0.06254305975584667,
            0.4973683020571598,
            -0.6825060523173366,
            -0.005627041152031425,
            -0.5623802949988853,
            -1.7416182466532386,
            -0.47381399082001646,
            1.5824772271538394,
            0.5850040307967044,
            -1.2759296628764643,
            0.5502547190011331,
            0.8529505284476594,
            0.8276401285726105,
            -1.2335167077335756,
            -2.010816442371989,
            0.9666912510884691,
            1.1049301753248666,
            1.837650937592272,
            -0.500736834272201,
            0.43412046537243903,
            1.2311192753166145,
            0.5230995158944799,
            0.11887219429434512,
            0.5272650426757862,
            0.8289171812826819,
            0.08464352099677916,
            -0.18137407337187764,
            -0.7225172451773011,
            -0.6387993745231735,
            -2.271979903450447,
            0.639185887821198,
            1.5361300491609258,
            1.8114513688306313,
            0.7567683530003513,
            2.4147323581535485,
            -0.3161134251163775,
            -1.722262959004715,
            -0.305644969802331,
            -0.3532558495854971,
            3.327835321833851,
            0.8402987057163104,
            1.83475097856961,
            2.0428876721537907,
            -0.9477537118064436,
            -2.2308310473771495
          ]
        },
        {
          "threshold": -0.021210475013573968,
          "weights": [
            -1.0982183321416268,
            -0.9729329722993538,
            0.30174037765266537,
            -0.061370301376407366,
            -0.9698065922575737,
            0.822112268233467,
            1.4198177212748058,
            0.2366359134131385,
            0.7694110167312991,
            -0.8785256745978953,
            -1.0197328406206079,
            0.1369390579788973,
            -0.8238338044763139,
            0.022557394192513815,
            0.2806115779371981,
            2.2722206891838628,
            -0.3676673701626827,
            -0.36245605582553647,
            -0.9944653688731633,
            -0.8009562864970278,
            0.053656314254489565,
            -0.007143673332177571,
            0.5774999863550111,
            -0.2619066372514934,
            0.2850833090831826,
            -0.9814614364910933,
            -1.3543610601191043,
            -0.7988942216977757,
            0.6117585387979991,
            0.0819129695052264,
            -0.7065409689252959,
            1.258030210702335,
            -1.0476290485886564,
            -0.45865848570020884,
            0.5239546705452268,
            -1.0681399960856037,
            0.445035397488687,
            0.1375874948485931,
            0.5557664841118073,
            -0.6066523192772352,
            -0.5984833759508759,
            0.16495209684950002,
            1.366851386844293,
            0.5940561512096478,
            -1.890954533854108,
            -2.182556743034636,
            -0.10475159801517858,
            -0.33475913854570394,
            -1.5089162846160278,
            -1.0734593772595027,
            1.2192536557117366,
            1.8977144795819394,
            1.483632351639244,
            0.19924773334229984,
            -1.5414359585370296,
            0.4870120623162746,
            -0.537644284771361,
            -1.014799024689338,
            0.01657332870471981,
            -0.529439152740792,
            -0.3708382759086266,
            -1.014383065944242,
            -0.9166305221024534,
            -0.6399949416375218,
            -0.18506976672840592,
            0.4298795537021845,
            -0.19969103964847296,
            -0.9713026257139292,
            0.20410426415127186,
            1.2627272377297218,
            -0.6354563609373874,
            0.2446870130039963,
            -0.963685598458388,
            0.9790871461081695,
            0.6833716151777822,
            0.942809685626148,
            0.3127663801590629,
            1.2287239983313458,
            -0.7733278476748587,
            -1.1835339663267668,
            0.43086155648165975,
            -0.5834449229246106,
            0.961260908016116,
            -0.044289038478526915,
            -0.7550779251498806,
            0.5327313114089441,
            -0.9277985057723981,
            0.0484524465242806,
            2.2175359978378637,
            0.3953550184226853,
            0.773022227652161,
            0.029583463277946913,
            0.8591392425310604,
            0.589319097896455,
            0.6427522901592633,
            2.1898031975893386,
            0.2908057854165007,
            0.7446484717939926,
            0.7889167295321499,
            -0.8789663516954462,
            -0.7533404690882843,
            0.600369966426238,
            0.6020738792850987,
            1.7054771703119147
          ]
        },
        {
          "threshold": -1.021881115147324,
          "weights": [
            0.5008370055687813,
            0.24473909677456201,
            0.6434114527402492,
            0.06185614514501217,
            -0.06272056096747995,
            -0.19102200278054668,
            -0.7122011233042459,
            -1.2537073683781943,
            0.0767727900329241,
            0.012347007516663072,
            -0.7854982086581218,
            -0.5146201263968287,
            -0.39319679329728324,
            -0.9719697834477125,
            0.15650536457686534,
            0.3634860094954575,
            -1.1190226800280059,
            0.14203022815042585,
            -0.5032396871282174,
            0.43985781618012454,
            -0.5023202389605953,
            -0.12090523000275284,
            -1.1761079357073128,
            0.3183522611856013,
            0.5756448333356736,
            -0.06634474051528219,
            -0.502309269466266,
            -1.1248189998228317,
            -0.6855460029534111,
            0.41656293597601884,
            0.13578646165249503,
            -1.23926910018706,
            0.49005563987599193,
            -1.1968532480304153,
            -1.0206672678943294,
            0.6349300659263883,
            0.5612721897976496,
            -0.04314213850952473,
            -1.1567775290304116,
            -0.5278785994415444,
            0.5305386500395777,
            0.32189027808911863,
            0.12514292604462074,
            -0.9170651284318616,
            0.10964962427802853,
            -0.9703385882362099,
            -1.0112861433497877,
            0.5798831670727034,
            -0.6164119147016951,
            -0.8167594141729366,
            -0.6661182804708954,
            -1.0023096926647959,
            0.3709242349186992,
            0.07881202615245776,
            -0.5613820579621845,
            -0.30544133150479,
            0.5814612097722262,
            -0.4554164256518162,
            -0.8221478133476559,
            -1.053236957351951,
            -0.596433051061126,
            0.02828607312734527,
            -1.186382816917391,
            -0.559025394332967,
            -0.45077256585112196,
            -0.41651320046857426,
            0.20890127701254416,
            0.020377431250337228,
            0.41315624160288805,
            -0.12171677522563329,
            -0.8832905302072048,
            -0.6000878212099857,
            -0.733686676604206,
            -0.1710703286254832,
            -0.5489706510099679,
            -0.7785401575030698,
            0.10196788533141592,
            -1.3181466931552155,
            0.17187261301400156,
            -0.4247360059219041,
            0.6886415103764837,
            -0.816179697508531,
            -1.2287726047128773,
            -0.8119256542646947,
            -1.30818192771484,
            0.6104000164300096,
            -0.5801937156499984,
            0.542802890413174,
            0.44947594460212087,
            -1.0604459722896182,
            -0.542640902432947,
            -0.6038209447606276,
            0.4101097060990069,
            -0.5026610052722178,
            -0.10199196500397784,
            0.050586545803516424,
            -0.6278927988713082,
            0.09805426910699384,
            -0.04513277306783327,
            0.6273706521805513,
            -0.6684307175961243,
            -0.18134233607504305,
            0.14666051585397807,
            -1.3377984268178758
          ]
        },
        {
          "threshold": -0.7525439779734511,
          "weights": [
            -1.8090073803680402,
            -2.7638995196645433,
            0.8946041735970399,
            -0.32719260697391445,
            -1.334928992946637,
            1.477000078453794,
            -1.2454996228294402,
            -1.295653068475302,
            -2.101837727840536,
            1.2972029542603107,
            1.2476807799093843,
            -1.5131199853329198,
            0.14266346685009773,
            -0.39261180005046614,
            -0.6904013082395877,
            -1.54673597661715,
            -0.3199829125601132,
            1.4604120504161553,
            0.7347902261343676,
            0.08943933168320525,
            1.5669939386746414,
            0.9575891024011128,
            -0.7262060736199046,
            -0.41156161103695954,
            1.3492224492075362,
            -0.6735078488834565,
            -0.13649993622662818,
            1.3278743967756337,
            1.239031526634318,
            -1.1940567906391075,
            -0.755757677644764,
            -0.6455790836735221,
            0.9079652333138934,
            -0.550947448050225,
            0.7882355791058209,
            0.43607912532931115,
            -0.17481694342996765,
            -0.3928480704430034,
            -1.1773859204953934,
            0.9892970683584912,
            1.496925207094097,
            1.948508607767822,
            -0.47247015189764563,
            -0.5733526297185967,
            0.5456758952634876,
            -1.735436795257147,
            -2.116115314193551,
            0.8990658630517927,
            1.9691930203192016,
            2.1575218909565748,
            1.534576669946122,
            -1.6804632155722092,
            -1.6748268972394214,
            0.6021144423891274,
            1.52829036146763,
            -0.3205523182103624,
            0.46668784281225106,
            1.2623958374473772,
            1.1808392878071725,
            0.6045226617433203,
            -2.7534733450814017,
            -0.9723735899047566,
            -1.3624281801897296,
            -1.470788224219068,
            -0.36817001497360713,
            0.4323205902878074,
            -0.09069141119834853,
            0.6154906390183638,
            -0.2796763991879048,
            -0.23491795292401596,
            -2.0732839857908845,
            -1.209300474050161,
            0.5887526228972065,
            -0.31374869968569985,
            2.325262522951161,
            0.24093809616132172,
            -1.1024384306129769,
            0.07848918806587005,
            -0.9775135535312047,
            -2.1184989457784327,
            -0.12830868896764178,
            1.0187193463565813,
            2.6400399696801826,
            -1.4744917106864042,
            0.2352215986026898,
            0.9256102874637362,
            -0.9761855696578239,
            -2.340687776667632,
            -2.787766192345463,
            1.3794535002309007,
            2.8108240970816833,
            1.0824906558202343,
            0.86368953722611,
            0.9118928212907751,
            0.8312197627426685,
            1.7650721751107419,
            -1.3256623013134672,
            -2.1570334573952663,
            0.49849482636139086,
            0.3667666546463928,
            2.1269902191994574,
            1.203173160073863,
            2.1954375877024868,
            0.4850999572430702
          ]
        },
        {
          "threshold": 0.4188854213728876,
          "weights": [
            0.2368387100628686,
            0.28136246688069383,
            -1.3096299346646318,
            -0.9794950603697117,
            0.06616586243407518,
            -0.16585923377127695,
            1.0173757083525863,
            0.6788116897395029,
            1.6709143629047867,
            0.0555020842017617,
            -1.2140987227798217,
            -1.3240566429892064,
            -1.1810892757745237,
            -1.0046021404556833,
            0.8749003743170084,
            2.719648202133942,
            -0.9322626060680002,
            -1.187630943629412,
            -0.28381018517545487,
            -0.8597714532470053,
            0.07237180384625291,
            0.06355523169406295,
            -0.2519243297614125,
            -0.10584737074087869,
            1.2464050050868114,
            2.625865199764596,
            0.7931987021194375,
            -0.5719019729015892,
            0.039431177288434135,
            -0.4264556749509028,
            0.311316793103764,
            -0.5162954173233271,
            1.4844854295055336,
            0.683540263954356,
            -0.49720707346661464,
            -1.284690746973884,
            -1.8043025233274057,
            -0.8375002549072704,
            -0.34605123261154397,
            -0.033903188346431676,
            0.3003934028192717,
            2.3128367823387803,
            1.1862568389757824,
            0.19233745494768503,
            -0.6463482839394494,
            -0.11356666313528413,
            -0.6810001285683123,
            -0.36949949167912066,
            -0.1662810902204405,
            2.2512224463929353,
            2.2201162231936147,
            0.4646110962299165,
            -0.7638486408115266,
            0.9551451870913021,
            2.3565788765368576,
            -0.12869944320781668,
            -0.4812813875017909,
            1.184802410131156,
            0.9794848514454069,
            -1.7859924028511263,
            -0.799256863816051,
            -0.16217721679315994,
            1.182627650329159,
            0.40636812650056225,
            0.9091081547826171,
            2.2334451629527616,
            1.19911282148877,
            -0.4629992740696923,
            -2.8913281099685353,
            0.3786370276108475,
            0.925820118532375,
            2.025494534174628,
            0.6677166001945913,
            0.5007277312298974,
            -0.3854441743117598,
            -0.7909373123400392,
            -1.8679489326760876,
            -1.81589256223929,
            0.938379267443043,
            0.8702725627690855,
            0.22356244931788785,
            -0.546701076216455,
            0.15868730735420522,
            0.20057777709637384,
            -0.7393060841374577,
            -1.2643136237902088,
            -0.9683371725768734,
            1.2788251919993987,
            1.4438762223346169,
            -1.3683502643367649,
            -0.26654556478025726,
            0.012392721406422625,
            0.951408117326232,
            0.2884621196601442,
            -1.5067008672656195,
            -2.393211900957529,
            -1.3702142133307904,
            -0.9023664177990283,
            1.1804460351321435,
            -0.8424448973879084,
            0.0017543684300719516,
            2.2870087038313773,
            -2.243499372671796,
            -3.3295063371981968
          ]
        },
        {
          "threshold": -0.5565652949680554,
          "weights": [
            -0.8686891554527013,
            0.18861980775432127,
            -0.6740669562154044,
            0.30474272019453313,
            -0.5179667764132396,
            -0.3287069864184152,
            -0.8270223825303868,
            -1.0555732112521559,
            -0.9620848291425264,
            0.4088484011408304,
            -0.17901360180234974,
            0.7619139364503522,
            -0.08910078837738725,
            -0.37279295469303825,
            -0.19338375086342832,
            0.36113838706622986,
            0.061328236409403186,
            -0.35439587648988036,
            -0.32800886080951464,
            0.6669956980353624,
            0.776715443240408,
            0.738593030592308,
            -0.1719487368599864,
            -0.2984130752974731,
            -1.0716119387815417,
            -0.5495093555977876,
            -0.2599491733640976,
            -0.9651741389084163,
            -0.2048420813671378,
            -0.800972693705944,
            0.0026367858412704595,
            0.49261069146537984,
            -0.5370392039686341,
            -1.0118804605958327,
            -1.0126887679056733,
            -0.19211620911965394,
            0.5560523479248544,
            0.7670259856824884,
            -0.24637428244618417,
            0.14465937139628263,
            0.6993844952841621,
            -0.036276595467639804,
            0.27241089681850733,
            0.2238990248453929,
            0.6488651763164692,
            0.22431491265282485,
            0.45494839242933877,
            -0.33542411255792987,
            -0.5102645053662106,
            -0.5312385640405145,
            0.6706620035951159,
            -0.9369033201503406,
            -0.4252761982131998,
            -0.749251545306198,
            -0.5905970240425419,
            -0.8494043238025935,
            0.6373643254297554,
            -0.8830126657486825,
            0.6503913466111456,
            -0.44007694996446806,
            -0.057920568994590825,
            -0.521474998500485,
            -1.010052241243439,
            -0.15433236317776855,
            0.12473741831012201,
            -0.6689760098328255,
            -1.0285194773544086,
            -0.06439946887954827,
            -0.21462306323061872,
            -0.06938855164017581,
            -0.11669501793453041,
            -0.06173343585833833,
            -0.5019891136920795,
            0.19247415446976127,
            0.11627091845593363,
            -1.104811386341902,
            0.16413872011628955,
            0.2382306543712772,
            -0.1506108333917551,
            -0.06572377351900473,
            -0.005871743035549743,
            0.7360231369703436,
            0.3344099641026493,
            0.38455573625440886,
            -0.970487179734161,
            0.03749512363741915,
            0.01386021206608821,
            -0.17984411904319011,
            -0.5732542732789215,
            -1.00358787324876,
            0.3233087512284642,
            -0.07399856474312838,
            0.6540214397981811,
            -0.9533096767191839,
            -0.9578233567605886,
            0.757370023356999,
            -0.4134163314112403,
            -0.132854184457466,
            -0.8841514380021789,
            -0.5665583567553774,
            0.2442086348764595,
            0.8469053449572379,
            0.2309151788968886,
            0.6738539720371158
          ]
        },
        {
          "threshold": 0.1278215289717498,
          "weights": [
            -0.0498491131017792,
            1.7819405834383564,
            0.5221480971484072,
            0.904493910966212,
            0.6794842058604325,
            -0.9953885787383833,
            -1.8808681532974205,
            -0.5704181332572599,
            0.1021332905287657,
            -0.8859146178983749,
            -1.0428223474790257,
            1.9001514394884722,
            -0.8255420746503278,
            0.4712051755753925,
            -1.3608587690006448,
            -0.8934032479249485,
            0.14274651232098115,
            0.8747562269648708,
            0.6682110355200168,
            0.74303743365666,
            -0.1662716567532328,
            -0.7390758302358436,
            -1.8723929582264724,
            -1.0901863776274725,
            -0.4882205027226307,
            1.2055525746484788,
            -0.15749315986751333,
            1.639101459100021,
            -0.7846972582240128,
            -0.6061603875668492,
            -2.4884164075775668,
            -1.0826391207260346,
            1.1854761385603902,
            1.541717051331403,
            0.34356508564615823,
            0.34466493896796374,
            -1.250970021186824,
            -1.5397704305567699,
            -2.119618523043808,
            -1.2518095790152022,
            0.20744856504725734,
            -0.39519976122409994,
            0.8803497300411118,
            0.010276560446390918,
            -0.44133963574055124,
            -1.2965911591310568,
            -1.7779148119113255,
            -0.7125803732662997,
            0.3266585951872845,
            0.8831031357311084,
            0.8482154753932509,
            1.7546714990345478,
            3.539966650123338,
            1.7464155729795443,
            1.0260204038676057,
            -1.3460887222359625,
            0.2174331345709061,
            0.5260025039562365,
            0.43134017968449023,
            1.1396632736169636,
            2.2982608017451507,
            1.4680948726762528,
            0.7247285006005907,
            0.14923143645277778,
            -0.7751277553887121,
            -0.7063709834385373,
            -0.25955899363359897,
            -0.9472531143903996,
            0.9675429582654752,
            2.4052294532739187,
            0.6177150297184667,
            -0.5880307646621401,
            -0.341982920312502,
            0.7924442974677126,
            -0.7699365436183543,
            -1.177671616410025,
            0.07349346893518284,
            1.0332228145842686,
            0.28372961627595555,
            -0.25385901590336885,
            1.525910186541582,
            1.1774678986964349,
            -1.3017796531717927,
            0.07081236114623446,
            0.5020331383158833,
            0.8370447591555907,
            1.1613944031957995,
            0.24187336548427796,
            0.0459929600656762,
            -0.15810384665082217,
            -1.400175189882765,
            -0.33232172515014924,
            -0.28216711038281855,
            -0.941251975958674,
            -0.6894645510955587,
            0.20729148314834073,
            -0.53650797229832,
            1.1097913498051073,
            -1.210551768143336,
            -1.4986100610140687,
            -1.109768156706098,
            -0.03104237026517507,
            -0.5023712450691263,
            -0.691185192638005
          ]
        },
        {
          "threshold": -0.5974325634015497,
          "weights": [
            0.31472696505606623,
            -0.23250061912938777,
            0.9205813248590488,
            0.08846324920480798,
            -0.12615370975650797,
            -0.28575945156182564,
            0.7710465331197528,
            0.04018900499764032,
            -0.5011964824558907,
            0.5868325102740876,
            -0.48927434350598953,
            0.22525483317664566,
            -0.24801622577133964,
            0.3508089756603314,
            -0.7429278638629568,
            -0.16470530266455571,
            0.7693983355661266,
            0.5203096903962471,
            0.7445242930084939,
            -0.9781857931446178,
            0.022560999890487557,
            0.15847603937346388,
            -0.8987238040723614,
            0.6254325701354198,
            -0.8979738649248235,
            -0.8680836620440588,
            -0.44434959617699216,
            -0.595596376643239,
            -0.5873670303450065,
            -0.20161593375114206,
            0.11805196589656908,
            -0.8593396857817528,
            -0.8834359752006077,
            -0.5385096233798785,
            -0.7508798452294122,
            0.9156330785707033,
            -0.34453842575709354,
            -0.8818934704235547,
            0.06260772044024918,
            -0.15623720964955443,
            -0.2464531420539446,
            -0.6956247885830409,
            0.702985948895385,
            0.5910314779886854,
            -0.07524274970665391,
            -0.8351103182803359,
            -0.7989647394364409,
            0.12688165486859757,
            -0.7972649089313397,
            0.2721392484398962,
            0.3244067399214612,
            -0.6785333307981007,
            0.05670246446099397,
            0.17032495085859517,
            -0.267696978988724,
            -0.7526833972910256,
            -0.7205540588182442,
            0.1408506491742369,
            -0.9205717082933184,
            -0.6669185879269852,
            0.0036255910096601625,
            -0.7355515799343552,
            0.6316276228736402,
            0.8859184663063746,
            0.9434239338510764,
            0.4959895414406132,
            -0.5816245514589204,
            0.9193830098931701,
            -0.5331444571850343,
            0.17815036109530946,
            0.9870209130278289,
            -0.289979672704666,
            -0.8445488836273043,
            0.18075014553562196,
            -0.5847736172688258,
            -0.9433605239486724,
            0.15187395893258457,
            -0.3101387952672507,
            -0.6025783170843819,
            0.8247132601157258,
            -0.23230563697187406,
            -0.44369217716086806,
            -0.057071888910677285,
            -0.964087262245715,
            -0.40795439337333905,
            0.0756514638659135,
            -0.4955085978534747,
            -0.505816224219394,
            -0.35782138259496005,
            -0.9188589381788254,
            -0.7959370822207653,
            0.7447768395151722,
            -0.013974243280287056,
            -0.6798473962209513,
            0.22771264275676162,
            -0.9831306655188902,
            -0.3057298302033522,
            0.2179632729922115,
            -0.5626384797319451,
            -0.2683332219694743,
            -0.005065717994533694,
            -0.6534421884748077,
            -0.22748017945580237,
            -0.8629786982908608
          ]
        },
        {
          "threshold": -0.9477377824370095,
          "weights": [
            -0.8260242618448489,
            -0.8828129127412363,
            -0.32011622906281867,
            -0.06180921390035714,
            -0.9810097713884207,
            0.9768082123993789,
            -0.12276781905534971,
            -0.9545864375422243,
            0.49140199999559153,
            0.48691154149720894,
            -0.5427289835446732,
            -0.635247463295961,
            -0.803552174862584,
            0.10371917362264083,
            0.15863580564032853,
            0.15976600659147783,
            -0.022276806089837772,
            0.6960283155809187,
            0.2871279791111514,
            0.36688073414000905,
            -0.4537222755131002,
            -0.4504274290455555,
            -0.8603877721285275,
            -0.23322328567460393,
            -0.9935741436684834,
            -0.5820376929082379,
            -0.7053528185464434,
            0.6904785658809477,
            -0.5629628343114274,
            -0.3267652607488309,
            0.5847252134323017,
            0.7070437135987165,
            0.6464815765685825,
            0.24926220430703977,
            -0.025179650192173164,
            -1.0011202868130478,
            -0.37192313445591807,
            -0.7595407000907647,
            -0.8002513257531202,
            -0.5446439902123998,
            0.755116790956527,
            -0.3025619322714338,
            0.7308510003908092,
            -0.7218720697081052,
            0.02815145439881033,
            0.5266387712778022,
            0.3031983891686807,
            -0.8797739961575963,
            -0.6558359766628176,
            0.08566083487501434,
            -0.8558309083830963,
            -0.19339804909388755,
            -0.7390766674110195,
            -0.27992789941838486,
            0.7195166857152757,
            0.9043634619423483,
            0.4057183053088768,
            -0.818748848328802,
            0.05308156597630363,
            0.6729396670561221,
            0.35141726243105964,
            -0.3565654073140124,
            -0.7669306256017587,
            0.2551151758558597,
            0.6158083181289628,
            -0.0693959777684752,
            0.17814679346200854,
            0.23522447278042097,
            -0.8032077464891322,
            0.4010835238339211,
            -0.4129353663750483,
            0.3817713959888996,
            -0.055475528473073986,
            0.015068834331674191,
            0.27320272686321634,
            -0.5033128631728927,
            -0.8256879855299221,
            -0.020107733171528745,
            -0.7105020715000575,
            0.3614210239026348,
            -0.3263297648371049,
            -0.3445562574544029,
            0.5804264161057572,
            -0.15618491177773197,
            -0.39735382568169303,
            -0.6012015170520236,
            0.19935290981417578,
            -0.5030133915773093,
            -0.16661388681116662,
            0.384816319018091,
            -0.36219929382578536,
            0.09770176948511684,
            0.28907740496194073,
            -0.49012064715024256,
            -0.7729813522937822,
            0.1461204091772234,
            0.5939791070302851,
            0.2235961569513693,
            -0.8931218769988476,
            -0.7092817898404732,
            0.9703226766817112,
            0.940210071403661,
            0.05143536743477575,
            -0.2917806426816023
          ]
        },
        {
          "threshold": 0.957284255559789,
          "weights": [
            2.4121442337730397,
            0.3745417246336323,
            -0.14153125055731242,
            0.3101680434818016,
            -1.8232094500305271,
            -1.7094042750711533,
            2.7025046831104933,
            1.168140907530812,
            0.5407296818447996,
            0.1988256198286076,
            0.6200903963644446,
            -1.0776835063838948,
            -0.8131498116492857,
            0.9052899741082081,
            0.7240429096898182,
            0.1134836316187851,
            -0.8160119285968553,
            0.12027140964378427,
            0.45996208994657073,
            -1.2216651946698296,
            -0.4490375352521947,
            -0.26523091460493986,
            -2.243993442610376,
            -1.5493965471771518,
            0.8441691236374231,
            0.5246156866542222,
            1.314777939724697,
            1.869371818673202,
            0.3167573352783053,
            -0.8588811310387225,
            -1.1997759811338753,
            -2.143773937800819,
            1.317761684970654,
            0.2669484403467119,
            0.1950253476504463,
            2.516685226985282,
            1.789374907996806,
            -0.5111100659862684,
            -1.6763245928989083,
            -0.0592107732084683,
            2.603915496768203,
            -0.9775427834924899,
            -0.7533687457590601,
            1.7713032029877707,
            0.6564528485792979,
            -1.2666670700598603,
            -1.136065666958345,
            -1.2566311479235606,
            2.9680632819050965,
            -0.42023026665942925,
            -3.4307471352255003,
            -0.8041028408922907,
            -2.326410174816261,
            -3.571109164621053,
            -0.0741241007491075,
            0.8521687733023736,
            2.6707721447576986,
            -1.0477321302440992,
            -2.154923695868464,
            -0.8401490254263808,
            0.6349801668104157,
            -2.0713953914545864,
            0.5943198248836994,
            0.27348018052223017,
            1.0103594062215322,
            -0.4877911049668261,
            -0.645311429879467,
            -1.2091062237297072,
            0.7542473984462069,
            0.4943302125499765,
            0.33539404714443943,
            0.2156245072862674,
            1.4993373141087347,
            0.13891886374972445,
            -1.7558844283686714,
            -1.050430223815562,
            -0.28803251447839884,
            1.5174202254917732,
            -0.12349517162816444,
            0.08271453697857803,
            1.4370966995201688,
            0.617588533534619,
            -0.7985462139619925,
            0.6743368745913203,
            0.7156565051706014,
            1.0466454416710524,
            0.3516571522562072,
            0.8752639910852634,
            -0.3471857714294853,
            -0.39183402558562097,
            1.0281347280736668,
            1.5756609560371897,
            1.3817376243287243,
            0.6243605611548985,
            -0.37385079722716524,
            -2.669995063527865,
            0.12117562106259062,
            -0.8787697006073449,
            -0.9918262533714505,
            1.2981919073425705,
            0.7223675465009067,
            -0.3033242345342706,
            -1.3903310880613597,
            0.4609895076655217
          ]
        },
        {
          "threshold": -0.08469842765627748,
          "weights": [
            0.7562221969392179,
            0.02773311195993125,
            -0.5250731277909496,
            0.8890989368638289,
            -0.3977873589302624,
            0.08473429152638677,
            -0.7559645593573151,
            0.715433916358183,
            -0.6992479306527747,
            0.4317416544666344,
            -0.5461708396198,
            0.9091105942376874,
            -0.44806062046653006,
            1.042048891753346,
            -0.6661371389854672,
            0.4879155333654162,
            -0.07863627939259209,
            -0.9326568652597701,
            -0.7398478080794181,
            -0.1449443110070013,
            0.3317971092622777,
            -0.8342702326085473,
            -0.37633395164502564,
            0.6983056808373349,
            -0.04591637439120108,
            -0.7340199180443259,
            -0.029754514901014422,
            0.3835833075933503,
            0.7722771153112662,
            0.9977571013755887,
            0.34462238311674187,
            -0.1713036868826534,
            0.09062737857977402,
            -0.13598258449578426,
            -0.2177764955017978,
            0.1563059540887142,
            -0.4063721289473545,
            -0.762148041862457,
            -0.6662160346874242,
            0.48826111815346235,
            0.40524944826990156,
            0.8403367620653799,
            0.687214066802481,
            -0.5187472994392853,
            0.9496937360983548,
            -0.36485129070930666,
            0.6453822289080797,
            0.77046851399436,
            0.5301402315752055,
            0.5243973121018153,
            0.6666887164854429,
            0.9497692102143053,
            -0.03120300408283045,
            0.3083079871483652,
            -0.9061300046418089,
            1.0569021022417937,
            0.1535042807080266,
            -0.4369829877938147,
            -0.32146315272368564,
            0.48736199742004555,
            0.9509948078008506,
            -0.009978400224829933,
            0.7180197463855288,
            0.651141586837704,
            0.2831146358556667,
            0.6845395515652297,
            0.23878771797563195,
            0.7740357427503121,
            0.8222889252544058,
            -0.4455592074887473,
            0.48269914272989106,
            -0.8531914932376143,
            0.7526329153967173,
            0.7329001816957866,
            -0.09557355927231845,
            -0.03765722912997284,
            -0.03861734662081581,
            0.5198484942286126,
            0.4365993184667148,
            -0.2217234765879934,
            -0.7487177941101125,
            0.9448660695720082,
            0.9145660826480598,
            -0.8318867238355361,
            0.7866403705972018,
            -0.566899817665819,
            0.7667209059506407,
            0.7191382854161007,
            0.44795680539267185,
            0.6540706136460569,
            0.1976161980233732,
            0.952840595721309,
            0.31130576241956365,
            -0.8166049036176232,
            -0.4108664185673605,
            0.5021200583889556,
            -0.861203640055966,
            -0.06870804438992771,
            -0.4885219765404485,
            -0.4385325016487962,
            0.2706485097660795,
            -0.5936917155529524,
            -0.6117764764554822,
            0.24733244119856432
          ]
        },
        {
          "threshold": -0.9092485426668409,
          "weights": [
            0.5001742251571194,
            -0.9307232750985334,
            -0.17176159400215146,
            0.33265126598650535,
            -0.6158964908531431,
            1.389787074021559,
            1.9097006008811712,
            0.7048360737524707,
            -1.3573027909901123,
            -0.021464534744809364,
            2.1431373642609577,
            1.2274080910307643,
            0.45733652989469054,
            1.365220005980622,
            1.660308874171345,
            0.8022828861490175,
            -0.9100746511031438,
            0.8488002864193751,
            -0.21634058628124167,
            0.4368800621422301,
            0.08253519098633542,
            -1.0377966075281162,
            0.6196579227552781,
            0.03880269649211227,
            -0.42488658213045893,
            2.137234818466074,
            -0.27439326129109065,
            0.4065185043063415,
            0.19237779446784442,
            -0.6274794688058853,
            -0.6387211638032977,
            -0.10941442042411041,
            -2.3913261851846492,
            1.2551910078862214,
            0.8065347522821665,
            -0.43714783944502866,
            -1.7394470313307067,
            -0.6158146728728582,
            0.2971475248833136,
            0.6483513107607464,
            -1.037257730086541,
            -1.6830425683340602,
            -1.689363613921016,
            -0.4896150253069257,
            -0.9491400333021281,
            0.5865759990499344,
            0.9693885002004223,
            1.736874750141537,
            -0.538197618651639,
            -0.8760517469701801,
            -2.714065601914729,
            2.1494790373334154,
            2.3818755690183204,
            0.2762876028447447,
            2.2943419132023863,
            2.083333100468712,
            0.44507786784208475,
            0.4677873300615384,
            -0.762489152531758,
            -0.38769474405597804,
            -0.8313409316396018,
            0.13408541898079065,
            -0.34149258657495546,
            1.1682732194963246,
            0.2221164579043659,
            3.2846010648680957,
            0.2732024286432657,
            0.27529494389239123,
            0.0692030431408105,
            -0.04772424224295296,
            -0.4564865769358771,
            -0.870486324958622,
            1.1310106610796316,
            1.819911143398162,
            -0.5058685218348956,
            0.5595075449367438,
            -0.8959292427151798,
            0.704920872139795,
            -0.6417769148024569,
            0.1396095605378755,
            -0.55040394700617,
            -0.45795704984054214,
            1.7494318884086628,
            -0.5016691117131971,
            -0.31317258869523196,
            1.6212981036737018,
            -2.8379012098560885,
            -0.7352123395082554,
            -2.351806931850319,
            -1.0999445318446293,
            -0.5544707234322251,
            1.7889289121320722,
            0.4242818604312409,
            -1.0796017815758017,
            -1.363381234702746,
            -0.03791532444082076,
            0.04413298853293224,
            -1.2423830728914471,
            -0.478291300271777,
            -0.7945581291737226,
            0.12921249586892855,
            -1.2461681100616113,
            -2.2641471444356247,
            -1.331651700609053
          ]
        },
        {
          "threshold": -0.13296191858557385,
          "weights": [
            0.7356504249349968,
            -0.2797056757569896,
            1.949009126174073,
            2.600751170372965,
            2.0052032748064748,
            0.2846372185628784,
            -2.12068771740152,
            -1.8057212407747096,
            0.981073740373362,
            0.5552636724214302,
            0.6513868060809223,
            2.782221411505517,
            0.9790992084970385,
            0.8766631810536427,
            -0.7336482177477742,
            -1.6453450934300127,
            -0.0508641935730121,
            -1.6413392982161203,
            -1.7514289983256222,
            1.514143008578144,
            -0.31849302220972564,
            -0.6742356444855202,
            -0.8693120469388633,
            0.3426745074745753,
            0.11734530713811313,
            -0.12108216897445975,
            -1.2475275855477843,
            0.4836270286893546,
            1.0321529368044426,
            -1.4165665502292935,
            -0.8210339436776158,
            0.00039349593002485303,
            -1.1406191974069018,
            0.9145128553174348,
            -2.1142175983502005,
            -0.8612150104086371,
            1.6135643911956898,
            -0.7084378540115832,
            -0.900798213914663,
            -0.8805880826920468,
            -0.12606889303151694,
            -0.6086688352459338,
            0.3501623814832567,
            -0.5618729983600886,
            1.6890525078009002,
            0.6898607425185496,
            -0.15887250849139792,
            -0.5182948526280516,
            0.2085909171173544,
            0.4589529374119111,
            -0.2667420782516149,
            1.499121752826884,
            0.7127596687807223,
            -0.3656906597402156,
            -1.1606029840557575,
            -1.0878397038432164,
            1.8809621340958813,
            -0.0011504440757379622,
            -0.26583639533688064,
            -0.38011214894758283,
            0.050625018676531845,
            0.4952254474232473,
            -1.109288872402848,
            -1.4275194695509146,
            -0.0908872889448441,
            1.3796780217301576,
            -0.026867431677016326,
            0.27685305829396967,
            0.2006722896680807,
            -1.281122564165331,
            -1.3829218884292716,
            -1.8812491689123976,
            0.6110317291374818,
            0.9410463954353505,
            -0.9771426444209999,
            -0.8475180350589441,
            0.35046144060997936,
            -1.4182074145972225,
            -1.0163541733497083,
            -2.0607620119272925,
            2.392536405609353,
            1.1445121317714806,
            -1.8953146602046038,
            0.6919218621095677,
            -0.39676391685782325,
            -3.0266834348777674,
            0.3814126874271154,
            -0.3478340753275696,
            2.485621674874691,
            1.4801140399615758,
            -1.0839914399141892,
            1.498158981371623,
            1.3623513414901698,
            -0.5361430052445483,
            -0.3021627801169083,
            -0.13421389077422963,
            0.6141245355230214,
            1.5150639098891188,
            2.429741578040056,
            1.1456213033346871,
            1.3518529990227124,
            1.1130251982902175,
            -0.19272409577783772,
            -0.5759907692436813
          ]
        },
        {
          "threshold": 0.3165319258729137,
          "weights": [
            -0.2894798174429766,
            -0.020353269872570474,
            -1.6427630822709605,
            0.1892059212073465,
            -1.149052729131387,
            -1.7031267769406029,
            -0.8056896481819766,
            -0.07628112658044835,
            -0.8475872979890499,
            0.4906778570227418,
            -1.025949622784646,
            -2.89430531330827,
            -0.1660369969848603,
            -0.22999409584319455,
            -1.18549313693511,
            -0.4268691267763064,
            -0.24807788787000778,
            0.6356451881809667,
            -0.12206903853653452,
            0.771486330124555,
            -0.37918438429465473,
            0.5707376298579286,
            1.1811782011531096,
            -1.551436702593114,
            0.8550033080151389,
            -0.0769194663123868,
            -0.9577666114767005,
            -0.6975462016521896,
            -0.12462131683415975,
            2.237783685173104,
            1.497116933038948,
            -0.17406578468667322,
            -0.30084681246480366,
            -1.5917044163017067,
            -0.7363892843491919,
            -0.29912029706299437,
            -0.13928195311029104,
            1.130494178796992,
            1.4609658074042795,
            0.06805912117830715,
            -0.8799266843920368,
            1.5437271287311725,
            1.5000756636359331,
            0.448681063893566,
            1.8168196584415788,
            1.5045128155862177,
            -0.09669124388670008,
            -0.6367641274269816,
            -0.03381963892737033,
            2.2523683071965896,
            2.567358462241246,
            -0.3505956614456504,
            -1.429795131143726,
            0.3721798011194287,
            0.7694394764789988,
            -1.129840131663639,
            1.3117082880397644,
            2.3382971601984712,
            0.4796979298471796,
            -0.313372281022752,
            -2.5774229826553117,
            -0.29020654751177116,
            1.132767378222407,
            0.2622241615153274,
            1.6751012475506197,
            0.9971836871297333,
            0.32175389062407994,
            -0.2785878281407221,
            -1.4887218318844055,
            -1.402085824641672,
            1.5710053970897693,
            0.8182427869831077,
            0.26241437295883524,
            0.8158970597483186,
            0.09162721425051026,
            -0.2994582736546502,
            -0.1213088656236584,
            -0.09736534045034499,
            -0.2054674707271221,
            0.40508431047332216,
            -1.177540948911224,
            0.14886784959756832,
            0.45887891690216165,
            0.27780339649671365,
            -0.7150806291157609,
            -0.62149499808116,
            0.9674764844150193,
            0.555178425736081,
            0.15770604438013922,
            0.18978497513230558,
            0.27970330612183286,
            -1.7958417334106804,
            -1.4847671903502893,
            0.17910258522378034,
            0.7014295160795158,
            1.4936553833768913,
            -0.4959961920685514,
            -0.3735464232301936,
            -1.7499733039838037,
            0.3666047943490185,
            -0.5662327245803588,
            -1.8582515555868417,
            -0.6297655802231235,
            2.214975509240155
          ]
        },
        {
          "threshold": -0.25329007250577507,
          "weights": [
            -0.4917297737151486,
            -0.9795997515401337,
            -0.47136540193471466,
            -0.0814621877913396,
            -0.7093264890842771,
            -0.42043274984659207,
            -0.04528628676115918,
            0.09023166347292437,
            -0.3508382523426957,
            0.11621562094545118,
            0.31067795357956873,
            0.16283068384434143,
            -0.8606648751419864,
            -0.49486032968466603,
            -0.5175771664717758,
            0.5291172575371869,
            -0.6455412066589997,
            -0.05366316247333461,
            -0.915093965077195,
            -0.33261163795273097,
            0.7486835953224273,
            0.16824626741675142,
            -0.9113167375646752,
            -1.0711703541642807,
            -0.8469239662246438,
            -0.7889324422826148,
            -0.809060317396823,
            0.07938935814661686,
            0.6566176511974249,
            -0.5363433576807305,
            0.3890461084034507,
            0.023202508452882808,
            -0.6142796994421408,
            0.5197250554699214,
            0.49129394174744845,
            0.6248273754829768,
            -1.0606722754771458,
            -0.5564493694195274,
            0.8818793793408475,
            -0.6455461262251682,
            0.4154880236918117,
            -0.12817645306975317,
            0.2052912877422167,
            -0.3893117671338485,
            -0.26910153866986675,
            -0.7186796973643478,
            -0.36793187844063935,
            -0.33251413563995913,
            -0.7982344749321959,
            -0.6758668443218324,
            -0.7984174339410925,
            -1.0356763001637004,
            0.4478264238610617,
            -1.041505432136563,
            -0.40519862269590284,
            -0.5924511550652932,
            -0.03346298551009032,
            0.00934139448094921,
            -0.7860943702712654,
            0.5028543318710197,
            -0.7567968506117116,
            -0.8182706016390529,
            0.35811073523975967,
            0.1176931712204522,
            0.6708784072948375,
            -0.6124546884748393,
            -0.7945474458397231,
            0.39796937036742597,
            -0.9645469091670144,
            -0.674718368900462,
            -0.443651680543393,
            0.023067544877722307,
            -0.3064345059647,
            0.7771946361536032,
            -0.821094505173436,
            -0.6071364362316617,
            0.7408169739452902,
            0.23589987206511268,
            -0.09242198400365122,
            0.8697168466888598,
            -0.33895444848294465,
            -0.24736343760229992,
            0.5132272737508254,
            0.5206521601280899,
            0.4304611345853482,
            0.27144823764415943,
            0.793778779884871,
            0.5216500573168311,
            -0.30811408600498064,
            -1.0437953867338627,
            0.3851490385011697,
            0.6771263652010477,
            0.6925685570470484,
            0.5000361716157343,
            0.39310450591659885,
            -0.32565372960822647,
            0.12462256252380662,
            0.6166282080135814,
            0.14351321897578473,
            0.7418879740661316,
            -0.2855732600827148,
            0.7672314844573622,
            0.6028878192618039,
            -0.11900861904551206
          ]
        },
        {
          "threshold": -0.09470726352297149,
          "weights": [
            -0.6786250099528385,
            0.4410016478578175,
            -0.10736691796174815,
            -0.703056533045546,
            -0.7532467568869388,
            -0.6059480322199272,
            0.2655328466471257,
            -0.4064116039726895,
            -0.7330598919771808,
            -0.5000407134568373,
            -0.8107550237233119,
            0.15904173782802292,
            -0.09503945313624171,
            -0.2292206432282328,
            -0.8364242488054251,
            -0.5014685052711148,
            -0.004129500411406241,
            -0.9027197606548986,
            0.026168979356052786,
            -0.6729807244448525,
            0.4465413259107284,
            -0.3570198924187294,
            -0.6060610869279521,
            0.6917574747781826,
            -0.7008578163561184,
            -0.9678664620406218,
            0.9209010476139253,
            0.48440355152949743,
            -0.6542398048534385,
            0.1358887300423449,
            -0.21496632382488992,
            -0.8121627255882458,
            0.31846369368377625,
            -0.5206801893659805,
            0.6749818844023453,
            0.665956100345295,
            -0.7629375193917063,
            -0.5742266743495122,
            0.9309758517730651,
            0.4477808251141292,
            -0.9980815262706174,
            -0.14664126584490017,
            -0.27321730975064457,
            0.31008318645951116,
            -0.5329145162441062,
            -0.4572184279170839,
            -0.8909800426105697,
            -0.6920333984149304,
            -0.5112686322034345,
            -0.209025550059758,
            -0.19177335968159273,
            0.2064161670114498,
            -0.8874372625180188,
            -0.4065651862319547,
            0.9035063374784388,
            -0.5212785386659428,
            0.83851842864824,
            0.2293121493684536,
            0.7937992222283604,
            -0.5318129067290144,
            0.553415861752837,
            -0.2029204290715647,
            -0.30967435735333987,
            0.706897787850492,
            -0.518268484027607,
            -0.8739052903077023,
            0.14782393825865006,
            -0.7807174180440236,
            -0.12688913860306703,
            -0.8540548458506246,
            -0.6187109363333296,
            0.763763331391009,
            -0.05899680864470591,
            0.8017765226338236,
            0.6451393473931475,
            -0.805155448023194,
            -0.7038315320209918,
            -0.26609132396297064,
            -0.25387522022036163,
            -0.5468798833442428,
            -0.8427098873425459,
            0.34546386834700504,
            0.7946153887520747,
            0.6550280708551202,
            0.8038252867314244,
            -0.1448224688223474,
            -0.31073588194518936,
            0.6016977701899988,
            0.004139137464919253,
            -0.7530710534483414,
            0.7527476640655225,
            -0.0020863958889694055,
            -0.869333442657822,
            -0.21886402084094528,
            -0.4433367618111022,
            0.38602206583099014,
            0.3263625958745828,
            0.6561586947281757,
            -0.9980048869214606,
            -0.4277394788871084,
            0.36345316113065,
            -0.8491304861356928,
            0.22251106956267788,
            0.9696458436037022
          ]
        },
        {
          "threshold": 0.48701391506129643,
          "weights": [
            -4.116845860890718,
            -3.2064802728303428,
            1.4497741862324016,
            -0.078947980349002,
            -0.05126885139109954,
            1.8436627213997936,
            2.237167645138837,
            0.533512036512649,
            -3.8843967216921493,
            -0.9342041155174438,
            0.39918955636475556,
            0.04420968955596554,
            0.7727424276852806,
            1.1622402958911278,
            2.5063464100702335,
            1.1191012894304107,
            -1.9223444986936773,
            -0.5983361546399123,
            0.09419676444843167,
            -0.1410370265812015,
            0.15173721140158736,
            2.9720867862176914,
            0.018974895053746294,
            -0.440316886327023,
            0.026270572555437265,
            0.9495557712378327,
            1.0382566691415598,
            -0.4214298352234723,
            0.7013219798720525,
            -0.006632539642851886,
            1.0989964992120258,
            -0.5244232895715701,
            1.2029028537085285,
            0.7813817763343331,
            0.6598351379159321,
            -0.4614195576345886,
            1.5520090357894811,
            0.475557688442313,
            -1.0320909043015638,
            -0.7726552902884778,
            0.38731419494719765,
            -0.5099131222537114,
            1.0693096802289357,
            2.6455429744153736,
            2.497419077787634,
            -0.7008222111248408,
            -1.6648766384591585,
            0.9043501207358344,
            -0.08283691510748764,
            -0.9125232484259834,
            1.885542578205717,
            -0.770253765131835,
            -8.84207942430258E-05,
            -0.9015880112213166,
            -1.081262610026565,
            -0.6649910366024748,
            -0.07562661691533008,
            -1.4615541878825382,
            2.475184907547788,
            -0.9436308567275252,
            0.47157710307096945,
            1.4343876889275322,
            -1.2424701612289946,
            1.4301048078375695,
            -1.385949989635662,
            -1.853766285922068,
            0.15971869163519864,
            -1.2743771492445675,
            -2.028349894726334,
            -0.2155452391025688,
            -1.0004604611329029,
            0.48669093818057,
            -0.2608314696156274,
            -1.934255241055149,
            -0.17292203778746287,
            -0.7180680585988505,
            -0.7762482372831638,
            -0.5686657275223793,
            -0.40303399783125077,
            1.65216921539725,
            1.2037679488749085,
            0.6297093789972775,
            -0.6703977792247907,
            -2.012260168787298,
            -1.6200221688633818,
            -0.7610488936292542,
            1.425261030518871,
            2.4271908028077727,
            -1.2486472420740304,
            1.0070718280652131,
            -0.41271579513399237,
            -0.6361553428332513,
            0.20015437793133858,
            0.14490044312793635,
            0.8772758044658598,
            -0.4237678769947047,
            -1.85973113939751,
            -0.5590850311270112,
            -0.9619671772498202,
            0.3207639480467137,
            0.24026031227229608,
            -0.3279499248275388,
            1.4182394455126237,
            1.0552627285543115
          ]
        }
      ]
    },
    {
      "neurons": [
        {
          "threshold": -0.43781334203722594,
          "weights": [
            0.9663096346320005,
            -0.9504042001411718,
            -2.0331690172154833,
            -2.0650148961050765,
            0.5122380435997813,
            0.07801284841298255,
            -2.5854085557273563,
            -2.929248015209165,
            -0.448638541681524,
            3.411838624775164,
            0.3073382646833358,
            0.8734800365081679,
            -1.719593746704865,
            0.3581551022018318,
            -3.5028203521349033,
            -2.272826719978294,
            0.20230283371062044,
            -0.6269465578940104,
            -0.7487561110995039,
            -2.3047587895610606
          ]
        },
        {
          "threshold": -3.1502969197065425,
          "weights": [
            -0.4593620462753912,
            0.8413528394630859,
            -2.789665822130043,
            0.7037253677769003,
            -1.3099915875828443,
            0.739667235381586,
            2.002295648827192,
            0.5503392077627473,
            -0.5384957389986923,
            0.7864568479930404,
            -0.14741808294362146,
            -0.6964922175715965,
            3.577383878740687,
            -3.0055454631885716,
            -3.619000874667175,
            4.190592821304321,
            -1.9458720203382012,
            -0.6792278732687721,
            -0.8519593980093157,
            -3.9612408511253347
          ]
        },
        {
          "threshold": -2.46740242316999,
          "weights": [
            0.042429318158038666,
            -1.9290915530447805,
            -3.76178163251453,
            -0.9823932252889329,
            -1.411568402834041,
            0.3737824148213918,
            -3.7791558059690775,
            4.478438761494535,
            0.8280698523028773,
            2.447379199765439,
            -0.2841198544783189,
            0.13208150028565838,
            3.0992187843632615,
            -1.0971057599979346,
            -2.1690554410171523,
            -3.7587971802468685,
            -0.7125211453343,
            0.8792482948421472,
            0.6982211130036794,
            -0.6700927553028939
          ]
        },
        {
          "threshold": -2.7189189628883415,
          "weights": [
            0.5833607634335813,
            -4.185849144224875,
            -2.195420852825714,
            -3.9950352658541917,
            1.8771331218818612,
            0.2789974802591103,
            4.4509474649867125,
            2.4679685520291668,
            0.22523932600087473,
            -0.667142229242434,
            -0.49579992628250036,
            0.5609485084604746,
            2.7252110638061278,
            -2.9165941268007525,
            -1.3549212845009075,
            -1.6603266214620493,
            0.30195767035809107,
            0.5316090669672238,
            -1.001972802194437,
            -2.798157352247858
          ]
        },
        {
          "threshold": -1.4400763269889103,
          "weights": [
            0.32748945309260785,
            -1.1857587743018339,
            1.401396947358166,
            -4.348456922075202,
            -0.2972937064468991,
            -0.2446302811025183,
            -3.730003243976503,
            -2.5706659565262178,
            0.7528400675806306,
            -3.460749189065553,
            0.8991338360829813,
            0.6328911189066727,
            2.0381681902696767,
            -1.4662227850499945,
            1.6721818205178416,
            4.3931546933975225,
            -2.429935018253823,
            0.4090183225633083,
            0.986064301626447,
            -1.997926923755535
          ]
        },
        {
          "threshold": -1.5210521282973575,
          "weights": [
            -0.9809594252869158,
            2.3033945116372565,
            2.4291635077282376,
            -4.568038280821802,
            0.8161625550989081,
            0.3034089086627457,
            0.32561803215309704,
            -3.9492242719015063,
            -0.6558472868330029,
            -1.4910953048422422,
            0.5139698898484629,
            -0.7565027187322395,
            -4.8929947242484495,
            -0.8135435960378287,
            1.583892561076859,
            -1.0387218497116464,
            0.9269546571186561,
            0.9125079892385869,
            -0.30211449048859673,
            -3.203666526589816
          ]
        },
        {
          "threshold": -0.6007195917351831,
          "weights": [
            -0.6009087325762997,
            -3.0029472633359973,
            2.355076321129811,
            -0.019949171189469796,
            1.195054717085936,
            0.5081478926503201,
            -4.091884173129711,
            -3.0044713521707718,
            0.8841701262999354,
            1.078347240857086,
            0.3350358143810934,
            -0.502427722512439,
            -1.8232387561691659,
            -0.78045418815227,
            2.8790690410926616,
            -1.6217516448397138,
            -5.971105504277866,
            0.8787117957607165,
            -0.2677071838133403,
            -2.2119298378799
          ]
        },
        {
          "threshold": -3.4569802611775384,
          "weights": [
            0.09765238178200117,
            2.722834453022346,
            -4.421146566228824,
            -4.181156211016533,
            -1.120403639445267,
            -0.7610711552634472,
            3.2123908119592546,
            2.895605485620103,
            0.08693764663919028,
            0.6715277517178279,
            -0.3109007431547147,
            0.78770242328514,
            0.20773092804017484,
            -2.4506728361282377,
            -1.7100652746148726,
            -0.03490259412788155,
            -1.797029599433207,
            -0.1278566879630435,
            -0.7581320732714507,
            2.968033576927031
          ]
        },
        {
          "threshold": -1.6367488879523928,
          "weights": [
            -0.8843605529527264,
            0.09519294859588237,
            2.3879407713996375,
            -1.3887256507532988,
            -0.21476587855497165,
            -0.9376912692114021,
            0.2845599663723807,
            -3.2339625033805492,
            -0.25111216728631836,
            0.1635218807441421,
            0.334614174528909,
            0.009840847277552703,
            4.616929049056788,
            -0.008182577272417344,
            -4.067025890155492,
            -3.8235870610030895,
            -3.0098807397001432,
            -0.9818521326846371,
            0.9600362291405641,
            -3.16198582674392
          ]
        },
        {
          "threshold": -0.8621243379876724,
          "weights": [
            -0.7724947469867187,
            -2.5191166817123354,
            -4.528887819457468,
            -3.4496289086642085,
            1.684128809661296,
            -0.14870506140518625,
            -3.4607473366033434,
            -3.108112086034873,
            -1.0118969835608598,
            -0.38408826207495594,
            -0.718713515320964,
            -0.42474904291793386,
            4.135568239901826,
            -2.03791245038347,
            1.1237712204338266,
            0.5094691495855831,
            1.1702406929360167,
            -0.5184081859624762,
            -0.8517264460693885,
            -4.388716971630272
          ]
        },
        {
          "threshold": -2.167665153619383,
          "weights": [
            -0.6501455930849029,
            -1.4313953136705506,
            0.19375584377307736,
            -1.1490342123532333,
            -1.2324555759799598,
            -0.07862160092261775,
            -0.9943128711691881,
            4.276666863164607,
            -0.3635823079447169,
            -3.1757606016594093,
            0.8477016440759023,
            -0.35405261948190564,
            2.709478181187836,
            -0.8463495941153106,
            2.3061759890147915,
            -1.9711067090190513,
            -4.1674999234929135,
            -0.5994086606204054,
            0.6486639007135947,
            -3.0112443312331596
          ]
        },
        {
          "threshold": -1.4687780282484881,
          "weights": [
            0.18897322398440985,
            3.6980180284962194,
            -1.9870071189426735,
            -1.8512096159756137,
            0.730333623728889,
            -0.8820918011057344,
            1.9927737193895152,
            -2.0868013896556405,
            0.3715788229928216,
            -1.2056797543494286,
            0.9805981209144335,
            -0.4344371348067052,
            -0.04409122246273933,
            -1.260416567676945,
            1.8892451586720194,
            -2.7082410394126115,
            -4.757631992072601,
            0.7490521811115459,
            -0.39286079571314053,
            1.2352371490506289
          ]
        },
        {
          "threshold": -1.0898726479998437,
          "weights": [
            -0.368154752616944,
            0.6801364252934627,
            -4.56101872403145,
            4.18821833400765,
            -0.5538292431142249,
            0.1670292490950334,
            -3.7318040235388623,
            -0.5969804710468599,
            0.9358156753557695,
            0.18629405836480992,
            0.1715509814652291,
            0.11915492120254219,
            -0.6580696364808837,
            -1.35375496986578,
            2.5219415574871697,
            -4.313379151978275,
            0.5870109098669611,
            -0.5564297011257082,
            0.35248119432550706,
            -4.030310207803357
          ]
        },
        {
          "threshold": -2.6251724142949624,
          "weights": [
            0.4612970252908189,
            -3.589777892275933,
            -4.340460340051814,
            -1.1596382501856561,
            0.1362910958573214,
            0.5536615303739831,
            2.099714131152686,
            -2.5403683429364983,
            0.6910807193673352,
            2.4036194307579155,
            0.9730857202463852,
            0.7908107194888826,
            -3.479111620269002,
            -1.4907517555920198,
            -1.1279122614529782,
            -4.097225224064444,
            0.716003067138734,
            0.5066762666767375,
            -0.5594027058507063,
            5.313971789126233
          ]
        },
        {
          "threshold": -1.4349136496722017,
          "weights": [
            0.40927743869744165,
            3.878843541153337,
            0.5155343832620379,
            1.8170297336441077,
            -4.721007058859138,
            0.5916937757148332,
            -4.784527755503439,
            -0.7964327162412995,
            -0.45227615527952203,
            -1.7853322696073695,
            0.02592852013419166,
            -0.7645628384498334,
            -1.6598784608748345,
            -0.8703406978447152,
            -1.5776094431436245,
            -2.860549133307107,
            1.9461470584197234,
            0.7202206533345346,
            -0.22021442887973,
            0.47686549272052287
          ]
        },
        {
          "threshold": -1.7028791685629208,
          "weights": [
            -0.11116901501685601,
            1.9042581993086758,
            2.145411682272769,
            2.2846333655632876,
            -0.8438073207262018,
            -0.2563843733874771,
            4.354316691499526,
            -3.436792479216073,
            -0.36320071722617353,
            -4.50637373790922,
            -0.3846760781905595,
            -0.9877130788256058,
            -2.2813371827063675,
            -2.4618937460832058,
            -3.6161807458812545,
            -3.038648738758183,
            -0.12204252506551208,
            -0.6402343577805694,
            0.8790986566901223,
            -0.8728245480030149
          ]
        },
        {
          "threshold": -1.6676909096478358,
          "weights": [
            0.2367333150390148,
            -3.503347337004669,
            3.3412388721155883,
            1.8793178296602835,
            1.875189263073031,
            0.35368284745860445,
            -3.117488117365575,
            -1.922408665539257,
            -0.9909078489112019,
            -3.1836154143738327,
            0.48879811725750716,
            0.6407947613028561,
            -2.7032244216307677,
            -0.6339978767058335,
            -3.6952586339892153,
            -2.944445128102486,
            2.0632091005596123,
            -0.2573001547334547,
            -0.017176802582390144,
            -2.239046974245648
          ]
        },
        {
          "threshold": -1.1185599495587781,
          "weights": [
            0.7880544744188217,
            -2.9608994383548657,
            -1.0893844477337897,
            1.8888377445609728,
            -1.9609033298683793,
            0.008935012398255913,
            2.189866135567541,
            -3.2864284301512767,
            -0.016778287125477135,
            -1.0342972281200455,
            -0.6029805342735677,
            0.07740227265859403,
            2.0690231814399698,
            -2.092874991200484,
            -0.23667311154870038,
            2.1976900635037206,
            -5.811238002595754,
            0.7848015032406221,
            0.1879647994352791,
            1.4088166842678227
          ]
        },
        {
          "threshold": -2.770189065767707,
          "weights": [
            -0.8167589456271258,
            3.7224696774105355,
            1.218616773624629,
            -3.307730663884155,
            0.705571803915259,
            -0.6003162336173766,
            -3.9267374085220816,
            2.7437565540369677,
            0.8357548769485593,
            -3.162335601453009,
            0.17043464290799853,
            0.8899698526892373,
            1.1974352533486312,
            -2.576109342588977,
            -1.5206190310856216,
            -1.983062833872405,
            -1.2426800056744094,
            0.7136173279835802,
            0.41005241106211265,
            2.8253360091600785
          ]
        },
        {
          "threshold": -2.8432565342623617,
          "weights": [
            0.44286647360588016,
            -2.763856380762028,
            -0.08420963854453722,
            -4.264308369159207,
            -2.6651864789320485,
            -0.8184068411579545,
            2.848260853530221,
            -2.6947284965644434,
            -0.5607431054931389,
            2.9307823797421033,
            0.7218194666737249,
            0.6274541080181516,
            -0.6116776775380564,
            -1.5500891832804542,
            0.5962428874196715,
            2.4772504775574737,
            0.9541395815215419,
            0.9176633785191946,
            -0.2705915427213709,
            -4.124180459873279
          ]
        },
        {
          "threshold": -0.31810214890034305,
          "weights": [
            0.8790065531754969,
            -1.583038202802351,
            1.0528112839993953,
            3.2923105134277506,
            -2.318513947063526,
            0.22528193945699976,
            -0.6668102319724422,
            1.1289452307198415,
            -1.040263292270216,
            -5.3052790732904995,
            0.5970045782632281,
            -0.34999144968367923,
            -5.77449071271329,
            -0.4861092596203607,
            2.3277586448866963,
            -1.7176919336608893,
            -1.6874699348184805,
            0.11971805907616521,
            -0.8881557655023588,
            -3.103497818374661
          ]
        },
        {
          "threshold": -0.5526014961485357,
          "weights": [
            0.04817532349181445,
            -1.6127452978061447,
            -1.3050774003621657,
            -2.104033393083161,
            -0.9678016478908276,
            -0.00968292604586409,
            -3.7313416391871788,
            -1.2930157000957967,
            -0.8739949710118499,
            -1.871461909824466,
            0.9278992941061128,
            -0.8605046318939225,
            -4.501105549069215,
            -0.35559102029480844,
            4.122728500848714,
            -2.4480729141331796,
            -1.5570769993345281,
            0.20227468644848068,
            -0.35257760208581185,
            5.053059129484915
          ]
        },
        {
          "threshold": -3.1285823443838883,
          "weights": [
            0.8319117719272985,
            -0.6727794781751567,
            -0.34507506889739636,
            2.2425434151648767,
            0.012769427579471337,
            0.6296418580116713,
            2.7970350420770993,
            -0.30115128244554257,
            0.3114484198516722,
            2.50122464880585,
            0.8606624965757962,
            -0.10299740579888074,
            -4.1244530367237155,
            -3.226242341520644,
            1.9773511558685002,
            1.7930642874432188,
            -3.2539968494259845,
            0.6625373948717159,
            0.9586705115997065,
            -3.761546675852284
          ]
        },
        {
          "threshold": -1.4991720978346275,
          "weights": [
            -0.6558533370500855,
            -2.3513796893769605,
            -2.37278659977776,
            1.6061052911743363,
            -1.5895565227449053,
            0.244630241200172,
            3.034243583202034,
            -0.16683754322128796,
            0.8240316191274663,
            -3.3859888055901552,
            -0.7301524295352075,
            -0.6984937155320525,
            -5.246550589901582,
            -1.2274116397144348,
            -3.0741854008868814,
            3.1091424128380023,
            1.1500019931549152,
            -0.0500334014316828,
            -0.1503567128527787,
            0.6269924342666631
          ]
        },
        {
          "threshold": -0.07749248474028633,
          "weights": [
            0.24150771710428226,
            -1.4827051114774779,
            -2.1733606815843833,
            -1.7754580313577335,
            0.9137219407079955,
            -0.7629979427295485,
            -2.5820400057424084,
            -2.806628891355839,
            0.29967435094687345,
            3.008548083297497,
            -0.6868796699414613,
            0.7681785554547967,
            -1.478844459100917,
            -0.5657876180935014,
            -3.831112039062343,
            -2.112394134429859,
            0.695635164377683,
            -0.5899079472719783,
            -0.7192569192135058,
            -2.1364482409155316
          ]
        },
        {
          "threshold": -1.1173883969964244,
          "weights": [
            -0.8582184119870284,
            -0.7221155149253038,
            -3.722424235813599,
            1.8621099578227844,
            0.20218622509338674,
            0.25283654968003066,
            -0.6015854753780779,
            -4.027470872017206,
            -0.675987354736142,
            -2.9278229537094527,
            0.38627268157655464,
            0.05124482007261938,
            4.25137029520723,
            -1.0243690387062083,
            -4.6911643232681906,
            -2.7573947826490612,
            -0.917579644029209,
            0.579019625032817,
            0.7627124538847614,
            2.5031899954455845
          ]
        },
        {
          "threshold": -1.002326833898001,
          "weights": [
            -0.2425926078821899,
            -2.464216123749009,
            -2.2931331002562656,
            2.92062992198313,
            -0.878343078275257,
            -0.392954984199652,
            -4.411011394750931,
            0.8209161519416982,
            0.3145915985619826,
            2.072638238864434,
            0.561435333494817,
            -0.2947614470948518,
            -1.8116925313519885,
            -0.4381936480833031,
            -3.655612666089617,
