{
  "layers": [
    {
      "neurons": [
        {
          "threshold": 0,
          "weights": [
            1
          ]
        },
        {
          "threshold": 0,
          "weights": [
            1
          ]
        },
        {
          "threshold": 0,
          "weights": [
            1
          ]
        },
        {
          "threshold": 0,
          "weights": [
            1
          ]
        },
        {
          "threshold": 0,
          "weights": [
            1
          ]
        },
        {
          "threshold": 0,
          "weights": [
            1
          ]
        },
        {
          "threshold": 0,
          "weights": [
            1
          ]
        },
        {
          "threshold": 0,
          "weights": [
            1
          ]
        },
        {
          "threshold": 0,
          "weights": [
            1
          ]
        },
        {
          "threshold": 0,
          "weights": [
            1
          ]
        },
        {
          "threshold": 0,
          "weights": [
            1
          ]
        },
        {
          "threshold": 0,
          "weights": [
            1
          ]
        },
        {
          "threshold": 0,
          "weights": [
            1
          ]
        },
        {
          "threshold": 0,
          "weights": [
            1
          ]
        },
        {
          "threshold": 0,
          "weights": [
            1
          ]
        },
        {
          "threshold": 0,
          "weights": [
            1
          ]
        },
        {
          "threshold": 0,
          "weights": [
            1
          ]
        },
        {
          "threshold": 0,
          "weights": [
            1
          ]
        },
        {
          "threshold": 0,
          "weights": [
            1
          ]
        },
        {
          "threshold": 0,
          "weights": [
            1
          ]
        },
        {
          "threshold": 0,
          "weights": [
            1
          ]
        },
        {
          "threshold": 0,
          "weights": [
            1
          ]
        },
        {
          "threshold": 0,
          "weights": [
            1
          ]
        },
        {
          "threshold": 0,
          "weights": [
            1
          ]
        },
        {
          "threshold": 0,
          "weights": [
            1
          ]
        },
        {
          "threshold": 0,
          "weights": [
            1
          ]
        },
        {
          "threshold": 0,
          "weights": [
            1
          ]
        },
        {
          "threshold": 0,
          "weights": [
            1
          ]
        },
        {
          "threshold": 0,
          "weights": [
            1
          ]
        },
        {
          "threshold": 0,
          "weights": [
            1
          ]
        },
        {
          "threshold": 0,
          "weights": [
            1
          ]
        },
        {
          "threshold": 0,
          "weights": [
            1
          ]
        },
        {
          "threshold": 0,
          "weights": [
            1
          ]
        },
        {
          "threshold": 0,
          "weights": [
            1
          ]
        },
        {
          "threshold": 0,
          "weights": [
            1
          ]
        },
        {
          "threshold": 0,
          "weights": [
            1
          ]
        },
        {
          "threshold": 0,
          "weights": [
            1
          ]
        },
        {
          "threshold": 0,
          "weights": [
            1
          ]
        },
        {
          "threshold": 0,
          "weights": [
            1
          ]
        },
        {
          "threshold": 0,
          "weights": [
            1
          ]
        },
        {
          "threshold": 0,
          "weights": [
            1
          ]
        },
        {
          "threshold": 0,
          "weights": [
            1
          ]
        },
        {
          "threshold": 0,
          "weights": [
            1
          ]
        },
        {
          "threshold": 0,
          "weights": [
            1
          ]
        },
        {
          "threshold": 0,
          "weights": [
            1
          ]
        },
        {
          "threshold": 0,
          "weights": [
            1
          ]
        },
        {
          "threshold": 0,
          "weights": [
            1
          ]
        },
        {
          "threshold": 0,
          "weights": [
            1
          ]
        }
      ]
    },
    {
      "neurons": [
        {
          "threshold": 1.7043906654951522,
          "weights": [
            -0.41532347621711346,
            2.8825254437193304,
            0.0036970815298893586,
            3.354823301560233,
            -1.2247162951096324,
            -2.9433000371179086,
            0.36989242265977695,
            -0.7723660801278202,
            1.8775716051866282,
            -0.688233058183724,
            1.7010492282690688,
            -0.04370836103780486,
            3.4481852538737274,
            4.038661192904533,
            -2.4816655088652815,
            -0.11329063372579631,
            -4.1201420534469095,
            -4.51434592217604,
            -3.7181200009054995,
            -5.545199145818125,
            -0.06618389347455435,
            -2.0304849384861816,
            -0.002004321841635656,
            0.921863262324348,
            1.1135608267685804,
            0.3533888683068481,
            -1.154635242068126,
            -2.5486742718387165,
            0.36021383246894007,
            2.325591965527162,
            0.7695154849201501,
            2.5104476767362245,
            -1.8717019065993046,
            -0.6693398709824251,
            -1.2233711620302818,
            -1.3658523031680587,
            0.9977798991617942,
            1.3066489333639921,
            1.984384287933745,
            0.5005625379108081,
            -1.4226907907025235,
            0.32572395549222927,
            1.8662604833105394,
            -0.27802917785314424,
            -2.6786629361275542,
            2.1286543662574893,
            0.4716413904719714,
            -0.3704055048627107
          ]
        },
        {
          "threshold": 0.5828022470300829,
          "weights": [
            -0.08710439965492321,
            0.27705220491549093,
            0.4526259927443396,
            0.6801845136078336,
            -0.7116246255269458,
            0.8715092274382428,
            0.8487616894977252,
            0.45420712358650406,
            -0.1633761294105542,
            -0.5942710199896495,
            0.13320204225648183,
            -0.585085837652311,
            0.5393309336347513,
            -0.14500622759618914,
            0.4650258714584481,
            -0.26968288742469054,
            -0.5610594845948628,
            0.659375086279836,
            -0.15193635513675668,
            0.8526916692035098,
            0.7345049244799566,
            -0.15210304696952867,
            -0.04773056270250358,
            0.012967427894913166,
            0.14731402956706072,
            0.930329849955545,
            0.4782511501045345,
            -0.8240762679476221,
            0.5034683986489731,
            0.5548576008621067,
            0.8024147162939571,
            0.7190746676802487,
            0.737574301562523,
            -0.3822831387626978,
            0.8002035968437564,
            0.5112320062523344,
            -0.6444756315383635,
            -0.03512429968751525,
            -0.6912546881152154,
            -0.06390319939868638,
            1.057663397118422,
            0.12657468597176888,
            0.5727974262528418,
            0.026305622114645523,
            0.6326718401867596,
            0.574208367551224,
            -0.12391954917921172,
            0.39665840251176854
          ]
        },
        {
          "threshold": -0.741320627225582,
          "weights": [
            0.7491358610725011,
            -1.862686765921013,
            0.2427713837991645,
            -0.7011372098298961,
            2.1583518077860844,
            -1.2595983358818457,
            1.396558753590743,
            0.4075604841469472,
            -1.2041406464614373,
            1.117862648485411,
            0.8139440101869787,
            -0.5475318513363366,
            -4.377346089120678,
            -2.4818006193132014,
            -2.2490783422210057,
            -1.6457324494871055,
            0.8680562511579446,
            0.24609828319148713,
            1.1271689389037898,
            1.598143862358855,
            1.650717857262107,
            -0.2742207442070032,
            2.2351802442244324,
            0.551384624068318,
            0.21763651784047577,
            -1.201937976636163,
            -2.3357902046055106,
            -2.1438891849136974,
            2.7566992068475664,
            1.82491844403124,
            1.6828772829496113,
            4.515728914410945,
            -2.00554795491131,
            -0.26800131434346475,
            -1.7238021416147575,
            -0.744742625552964,
            -0.634948915224594,
            0.02944636387203403,
            -0.474923534391853,
            -1.9529023158893961,
            2.258228325609373,
            -0.4592382249900929,
            -1.997568003395576,
            -0.3252318253523366,
            3.812635469991333,
            4.144240051996945,
            3.8193509996712494,
            1.9220908058527502
          ]
        },
        {
          "threshold": -0.03769468256044446,
          "weights": [
            -1.3420604444202604,
            -1.5256308403715175,
            -0.4709318627348999,
            -1.3268391633599805,
            -1.4035818447417938,
            -0.1556397350886216,
            0.0747889371255145,
            0.3696788188794616,
            0.09736163739224325,
            -1.0662839730467928,
            -1.0177527141412448,
            -1.218907067995239,
            0.24516914255837302,
            -1.0110654894996816,
            -1.0487566505150874,
            0.39870370135516014,
            -1.1262656819480101,
            0.4888163982890627,
            0.3951674903964884,
            0.4731131239781616,
            -0.5814290983969197,
            0.38327254441905745,
            0.21130483380212714,
            -1.4182266155025047,
            0.3140045892676749,
            -0.6108209248985751,
            0.18382593621339782,
            -1.4098016161296822,
            -0.5438848292512073,
            0.37959799471320765,
            0.5038197460785161,
            -0.7219060408695482,
            -0.5146037073957362,
            -0.48766026526170797,
            0.32493914974759214,
            -0.7241315121140712,
            -1.149923400632256,
            0.09648649420594893,
            -1.3528553504101692,
            -0.047194050688917286,
            -0.23022556185319243,
            -0.19906755999881326,
            0.18692995227616027,
            -0.5275677967977572,
            -0.6975693895563415,
            0.44434810330633795,
            -0.6664349050119347,
            0.10578557356735356
          ]
        },
        {
          "threshold": 0.344773375940163,
          "weights": [
            -0.2506144337053791,
            -1.5058012626015078,
            -1.1464420369739958,
            -2.9684732482737677,
            0.7236521876001096,
            0.925314468903344,
            -0.5966125760743136,
            1.0543544114300378,
            -3.719071443924706,
            -2.049991701478531,
            -3.578728211148965,
            -2.894894567950994,
            0.6096338460224509,
            -0.10611461637302194,
            -1.0876835724505722,
            -0.2609619507882676,
            -0.5537912506057914,
            -1.9597623000059894,
            -0.7315138924676414,
            0.6440721494616589,
            0.25182684723504667,
            -0.44862640372046103,
            0.578080642915023,
            0.4485257986935144,
            5.878202866912373,
            4.500911164663654,
            2.5084091314065113,
            0.44883223373506703,
            2.9672563393149676,
            0.6015787709696626,
            -0.40079146625167617,
            1.74683397502435,
            -2.193260381620478,
            2.284679131136984,
            -1.0446711495296164,
            0.20070037654592512,
            -2.4249283285821464,
            -0.28635141971399203,
            1.195716987818702,
            3.2834159707966477,
            -0.20098478239771234,
            -0.14632307313620038,
            -0.1878078947038591,
            1.062376200754114,
            -1.7554474914427178,
            -0.7760523508472345,
            -1.6246945058430176,
            0.3220788529174993
          ]
        },
        {
          "threshold": 0.5315636417280367,
          "weights": [
            0.48551725892602743,
            -0.7394589741184107,
            -0.8694009185392689,
            -0.6109863101483143,
            -0.4972122544082532,
            -0.9550796623881946,
            -0.425405575304165,
            1.401606081643765,
            -2.2980491105904783,
            -6.193563215782741,
            -2.27435377991073,
            -4.012915169182894,
            1.4997861860304453,
            1.7226395354216737,
            1.704049663241439,
            2.142044199840209,
            -1.2511833494432414,
            -1.153600915820663,
            0.7146371721341659,
            -0.404304071234139,
            0.6876038927847012,
            -2.5175428810670333,
            1.1788719470473954,
            -1.5780304426209668,
            0.45059188466792005,
            -0.6869954385236191,
            -1.1901137965686668,
            -1.7648858209591503,
            -1.371913230840028,
            -0.6788390919396652,
            0.31155945193029455,
            1.057843689446358,
            0.6942854619022426,
            -0.71566661429841,
            0.15316061242201542,
            1.1836223415685867,
            2.311730510379968,
            5.59630588562786,
            -2.054496192087005,
            -2.629671733444035,
            1.4628219118083172,
            0.5706004043641932,
            -0.48047035194177057,
            0.6670931308721582,
            4.437903478311705,
            1.1621801629301634,
            3.2549147731533927,
            0.8816804419194179
          ]
        },
        {
          "threshold": -1.197375565311058,
          "weights": [
            0.3014456149066278,
            -0.8226618419910252,
            -0.2589574188803804,
            0.3966481999611329,
            0.6354186611446925,
            -0.6804366957838484,
            -0.6603206364205895,
            -0.4726690676316201,
            -1.1428883704776953,
            0.8157330526193916,
            -0.5541374023312646,
            -0.17797710232260694,
            -0.653838036814077,
            -0.9408408630795909,
            -0.42220990440242556,
            0.6987173455127975,
            -1.0036107763583624,
            0.6189550408451867,
            0.7883928962380992,
            0.17794308670337095,
            -0.38569212513905354,
            0.11582348872583303,
            -1.0105729705260722,
            -0.48064366849514095,
            0.038246879142513776,
            -1.0452860591203113,
            -1.1701675468931367,
            0.26963019128512716,
            -0.3108448047894453,
            0.6378676648526621,
            -0.8361695020335125,
            -0.6084302994738457,
            0.5698476299766152,
            0.057108750599047055,
            -1.0200468073692301,
            0.7480288485676544,
            0.5795757309320512,
            0.7350479723496673,
            -1.175306361841347,
            0.2587613448687588,
            0.37419188551663907,
            0.11429510374722247,
            0.6897660956741049,
            -0.4359791758966549,
            -0.5640239255780816,
            -0.5320184322053139,
            -0.14169370623686448,
            0.0063215427349747905
          ]
        },
        {
          "threshold": 0.6447206274137763,
          "weights": [
            0.4298134631314851,
            -0.44426780396370424,
            0.7423685281915391,
            0.7757693394636003,
            0.25693107655042885,
            0.11168129448852669,
            0.2524125603529953,
            0.8224877266280446,
            -0.24933775359799523,
            -0.4637057442751442,
            0.4278759254946106,
            0.17575045265524572,
            0.5980005897876848,
            0.09943044260735588,
            0.4902331195079816,
            0.9661096947790753,
            0.6596446847082119,
            -0.5189674368360964,
            1.0652030146824931,
            0.638672178275736,
            -0.6246739002015559,
            0.3023621557341703,
            0.5609058543764938,
            0.8530121005682959,
            -0.48448266164145976,
            -0.6851120577588382,
            0.11126383999338761,
            0.3949040841490565,
            0.8482626051812168,
            0.6904933165152618,
            0.0266977374008451,
            -0.38066756025524323,
            0.9769566571069856,
            -0.3655141294901582,
            -0.39124119878112784,
            -0.45410120172077195,
            0.4880322274105859,
            -0.7373816309674818,
            0.22992841304366937,
            0.17008598462631663,
            0.7672437171767063,
            0.7872216771803258,
            0.5266773278954487,
            1.0298246558104773,
            -0.7549963929025342,
            -0.18911573371201107,
            -0.3513965883652558,
            -0.1759422632866679
          ]
        },
        {
          "threshold": -0.5275613177295464,
          "weights": [
            -0.4102780952410751,
            -0.43228178796768546,
            -0.1713373291617043,
            -0.3355220409197302,
            0.013451423415054762,
            -0.3047586370165977,
            -1.2006573494295834,
            0.16682118166133533,
            0.20319834595030414,
            -0.0907270221960111,
            -0.7205785188742687,
            0.12280840276705116,
            0.18624520807273603,
            -0.45668529909808075,
            -1.173336957528545,
            0.038402938105387266,
            0.5360425223367001,
            -0.09256154618975168,
            -0.3519356277165358,
            0.35551833817243994,
            0.7237166047687953,
            0.335812753952146,
            -1.0796712442133163,
            0.3046854098832972,
            -0.9050782721322567,
            0.20159236002757747,
            0.1639282495980111,
            -0.09552441268250035,
            0.12006066537947768,
            0.19676864418839726,
            -0.871764559222513,
            -0.7392816244271119,
            -0.41718998624235915,
            -0.9021036815759045,
            0.21369343162900115,
            -0.01968487788466841,
            -0.9801763604115383,
            -1.031632255038279,
            0.261956522238947,
            -0.5313044329516957,
            -0.6690314078332185,
            -0.6890213947644828,
            -0.6101120731707762,
            0.4637907652235586,
            0.15501549822613875,
            -0.24248336905189244,
            0.3736131676169334,
            0.6366151889646348
          ]
        },
        {
          "threshold": 0.1511546622059076,
          "weights": [
            -0.3680736346794313,
            -0.7979081326201686,
            1.00446662161951,
            0.4535355581836384,
            0.9186761714411193,
            0.9040586358243312,
            -0.2906078288309015,
            -0.9491907910595424,
            -0.08721797898295722,
            0.7757260304293414,
            -0.044537842176306325,
            -0.6940274170719476,
            -0.12590303143978376,
            -0.06448634432354684,
            1.0556643558509464,
            0.6384191937135377,
            -0.7302549500961647,
            -0.6348585366518508,
            -0.2674931076114762,
            0.33469463095407864,
            0.7564991195356806,
            -0.6847126604167816,
            -0.9545906409205709,
            -0.7314215155663352,
            0.6863693413659309,
            -0.7833127461041094,
            0.9607235594008007,
            0.47054226186336634,
            0.4939078307747728,
            -0.2221347541558512,
            0.9420882298315363,
            -0.6265518316124027,
            0.6214277660457169,
            0.26557747364245454,
            -1.0982353777327412,
            -1.0023724069263924,
            -0.9487834692288577,
            0.6683353166447752,
            -0.09812168463742041,
            -0.2664052169049873,
            -0.9063307524391443,
            0.3780409264945092,
            -0.12918721830336052,
            -0.21126378504647284,
            -0.4633650813884963,
            0.48867396319172246,
            -0.421805098959249,
            0.028224890936071927
          ]
        },
        {
          "threshold": 0.4618739154967048,
          "weights": [
            1.185873686792722,
            -0.1114051448044053,
            0.5198912504983272,
            1.0294661067576878,
            0.5892029648991308,
            0.5657901382388283,
            0.5533665390892093,
            -0.20672433266182247,
            1.1260947189309913,
            0.2698062658311099,
            0.3685853971579958,
            -0.5459543840532786,
            0.7714266740176645,
            0.05535290068887461,
            0.8559529518789505,
            0.9200006789908038,
            -0.3148388004121001,
            0.31974135723018643,
            0.7026046220979245,
            1.0748867438591814,
            -0.4991104886847519,
            -0.7640049804329899,
            -0.38402454666694164,
            -0.725780867481623,
            0.20160940467137708,
            0.03738585400365062,
            -0.46352425283961624,
            -0.09291463532012013,
            -0.4720795535754914,
            0.9911109949807345,
            -0.6220975296607549,
            -0.5887333431159751,
            -0.3553489929047844,
            0.670958478950234,
            0.5579641358279813,
            1.0261749053547002,
            0.2596197216357093,
            0.07490772953034587,
            -0.6716898832362347,
            -0.8307892764201043,
            0.274530970127532,
            -0.565493455797687,
            0.09932687284401437,
            -0.06398876541699618,
            -0.4490882081815614,
            -0.09741908450564833,
            0.7169908820046726,
            -0.8157990354634592
          ]
        },
        {
          "threshold": 0.8551472191050545,
          "weights": [
            1.0348225891258205,
            0.45291518824099763,
            0.5413624977977148,
            0.561857848639543,
            0.34709043982272675,
            0.7324240094102147,
            0.7508975636421895,
            0.7350784236494715,
            0.7105842645344167,
            -0.628709792372293,
            -0.3019432010874653,
            0.7223238803873236,
            0.15261779711058318,
            0.8262655266710331,
            -0.18442249982407477,
            0.9771868008350315,
            0.9925536810175145,
            0.15524704552599014,
            -0.8363982483888897,
            0.36934521222331695,
            -0.6677479080162871,
            0.5005292887652433,
            0.6028714621604191,
            0.999730879273075,
            0.9834240876333743,
            0.17644154891356056,
            0.5560111017910211,
            0.33224371561859634,
            -0.14076982074518676,
            -0.5627840754906412,
            0.024344668057432503,
            0.7094955520295857,
            -0.6924875271505939,
            -0.36822754501544436,
            -0.6567196403684499,
            1.127715997471006,
            0.8296855056409741,
            -0.4122906045864754,
            -0.35824293925242123,
            -0.08138855628973657,
            -0.7053169791668692,
            -0.7024667167781061,
            -0.7758498644098911,
            0.20517603251201327,
            0.48867190899114676,
            0.9419774404988981,
            0.024515093821299263,
            -0.6911894561169777
          ]
        },
        {
          "threshold": 0.5328551499557351,
          "weights": [
            2.3059831432985307,
            1.3529533780415437,
            4.436150005032913,
            0.610296639779761,
            3.8463138888107995,
            0.6875554504360656,
            0.0691594640480243,
            0.5252684095188546,
            -0.8800267358704316,
            3.589253048376193,
            -1.707641139763938,
            1.0062373503646145,
            -0.6140498305002305,
            1.410744241775968,
            2.888257100101786,
            1.454110270673244,
            -2.378844590154774,
            -2.026030937495519,
            -2.652648587797174,
            -1.4748797264284441,
            3.362193771604872,
            2.267835767911844,
            2.151991131945515,
            1.2378327149566617,
            0.5103210964662864,
            -3.0896434743986774,
            -2.211385790852364,
            -2.680025003469562,
            -2.1894997156000087,
            -2.720941335065484,
            -2.749499681197372,
            1.323960144058326,
            0.1392771384413897,
            -2.662590056377032,
            -0.6169734156858632,
            0.4776518722155035,
            -0.4472466798022601,
            2.2583382128046723,
            -0.07091729169548953,
            -0.5533303234152724,
            -1.2333105220638865,
            -1.7202930203772908,
            -1.345508514564311,
            -1.9947863241176738,
            -2.237039419553346,
            0.4329502316158566,
            0.521745207658176,
            -1.8612248859247567
          ]
        },
        {
          "threshold": 0.4204050188461964,
          "weights": [
            0.6462808790073906,
            0.2658563472485387,
            -0.8307805415458187,
            -0.2626748580109671,
            -0.921168436060611,
            0.40546634294391476,
            0.21997805167209916,
            -0.04236410165215967,
            0.776977573251359,
            0.6118439719031532,
            0.31158160421125275,
            0.1545862461720392,
            -1.3075604938441805,
            0.253280967735764,
            0.7190681216955384,
            0.5099462201038182,
            -1.1058817959004492,
            0.4566280220545277,
            -1.0405206147268713,
            -0.8413546343612989,
            0.25880921407984936,
            -0.7665034166865861,
            -0.018061770562485806,
            0.3846788130031257,
            -1.0288550649212227,
            -0.3433910286855628,
            0.2012328616439223,
            -0.5252316826524305,
            -0.7569289297153968,
            0.19162176354161062,
            -0.5273710082275944,
            0.19819538015422183,
            -0.14285193502553487,
            0.3413780730764599,
            -0.4427197281710205,
            -0.8258939627664296,
            -0.19484285852586916,
            -0.2767335136444339,
            -1.1084183918529174,
            -0.352776182148906,
            -0.6678304301075603,
            -1.248819138776026,
            -0.9423439123837188,
            -1.2189480041352212,
            -0.44815782456148007,
            -0.8808128990542736,
            -0.1771441872130422,
            -0.36823304995423284
          ]
        },
        {
          "threshold": 0.14157935755267648,
          "weights": [
            -2.752501436592774,
            -2.5702028897759353,
            -4.650916366360991,
            -4.2612192073832915,
            1.4644126497731682,
            5.5425730536012825,
            1.1720604273156343,
            3.7879208368727104,
            1.2681613527003825,
            0.11596124807093797,
            1.5992536637909092,
            2.2107150266478897,
            -2.5254738155831644,
            -0.942685538356519,
            -1.4600941289516554,
            -3.4645570752628982,
            -1.6513156364334287,
            -2.4231713993879795,
            1.1467910065725717,
            -0.9966841114780782,
            -0.3509817015749846,
            2.0458591814907057,
            0.8877366374026112,
            -0.5498281161702789,
            -0.39847731498248967,
            1.2588073980859558,
            -1.6063043253901566,
            1.0680180508956376,
            -1.8865911469291468,
            0.22892420352589332,
            0.12379182773388901,
            -0.14606357137140114,
            2.151593517238806,
            -0.13914783645329448,
            0.9296074373175341,
            2.0773474820077436,
            0.1944252774246128,
            0.10659825032863973,
            1.960360034131174,
            1.6199638846273718,
            -1.6424315412661663,
            -1.9567445509541799,
            -2.090843045181982,
            -1.9315705512931565,
            0.5482343054034673,
            5.402945401941499,
            0.7692196641169573,
            6.759024640924492
          ]
        },
        {
          "threshold": -0.5375966828864379,
          "weights": [
            0.40788892852364306,
            -0.7583085505951483,
            0.3735860027161771,
            0.5841918625063296,
            -0.2616732560945462,
            0.804259014464641,
            -0.5330545702761549,
            0.22217663590926612,
            0.26698817766590843,
            -0.6083285846278699,
            -0.9806219778658692,
            -0.8791321121809291,
            -1.1309483189885003,
            0.32625616044788214,
            -0.805675239706012,
            0.5383647793815663,
            0.633783022111573,
            -0.12479692271791772,
            -0.22540806116493745,
            -0.25948386138437646,
            -1.0552029359557313,
            -1.0594207336741395,
            -1.1247799941265222,
            0.21855377581240323,
            -0.8525194476743694,
            -0.6402247525276826,
            -0.9543201485056378,
            0.13084260032199804,
            -1.0616486337391942,
            0.2887727894687906,
            -0.48820732983474485,
            0.7460720498975858,
            -0.6248179562769339,
            -0.682473117557119,
            0.2491643037372859,
            0.6971401471927432,
            0.3918321977038452,
            0.33448601654362936,
            -0.2665707803485092,
            0.290732562192622,
            -0.9252858730855756,
            0.11548203759439706,
            -0.7173742943095264,
            0.127113761824561,
            -0.6857893019145879,
            0.5372425041019552,
            -0.9069445722644602,
            0.4877077232794153
          ]
        },
        {
          "threshold": 2.287201591081785,
          "weights": [
            -3.6182436157582027,
            0.18383576791563894,
            0.09278953970190618,
            -0.5725741057872535,
            0.8643761693724514,
            3.7160479065058034,
            2.060111482520174,
            3.776812323228581,
            0.20094350380044768,
            -0.7786724019325098,
            0.9655617178458316,
            -1.6410472020953752,
            0.5037368088854359,
            -2.998719716018764,
            -0.587871683484126,
            0.03077404261587101,
            -0.7745029125131161,
            -1.7799926191659228,
            -1.6378334589635501,
            -0.545818796009293,
            1.5277105751264322,
            -0.9133438100311023,
            1.433663422544266,
            0.8426158926529816,
            -4.23816428251226,
            0.7145067132329308,
            0.2720584825584431,
            -2.273586638877141,
            -0.7919495456991062,
            1.4514231905656103,
            2.858486902426447,
            0.7416696536531804,
            0.11290684645139865,
            1.3075426789738755,
            1.6490172719539733,
            3.453889631870224,
            0.40222080985031694,
            -1.5214064504225493,
            -2.0190565020654843,
            -1.4801170011448503,
            0.6044997519324199,
            0.0963285527737017,
            2.1932035879454816,
            1.062585897393104,
            -1.3808052261673358,
            -1.2092111771977847,
            -0.9003391200094129,
            -2.535562795588903
          ]
        },
        {
          "threshold": 0.6920961835879146,
          "weights": [
            -3.038748483636323,
            0.22567665421391084,
            0.2983268579305844,
            -0.15976450203043616,
            -0.32575678541389375,
            1.454380786972493,
            1.5323340907657206,
            1.1332675412676683,
            -1.3057921587673882,
            -0.17266822537713503,
            1.5019444634579355,
            1.7565417534896628,
            4.214771108734815,
            2.95931307728835,
            0.5430652327374982,
            0.8517906140573995,
            2.506747564872838,
            3.801126407465609,
            1.1344164525458196,
            0.41537385823528694,
            -0.02379814068388529,
            0.009781810506320153,
            0.1583560795645011,
            -1.3697814889408437,
            -2.841692718228842,
            0.5140164504221755,
            -0.6534193917526538,
            -2.044351668562933,
            0.4606667612979205,
            0.7204652891975618,
            1.3252566251943652,
            0.6520114057222257,
            -3.5776793187198823,
            -1.0924873313926646,
            -2.3247849382942936,
            0.9054758215028689,
            0.904723281400998,
            1.7803782991913122,
            -1.4900358927618282,
            -2.3078957914440337,
            -3.9257502539209588,
            -3.0402832184020374,
            -0.21198125491956119,
            -2.1667681131086978,
            -0.6960230862885337,
            -1.9966942097194977,
            1.4371952567596238,
            -0.7846551395034077
          ]
        },
        {
          "threshold": 0.04546297078963917,
          "weights": [
            -0.1270235370025869,
            0.6757584569452556,
            -0.10760273192177423,
            -0.15325944056816787,
            -0.8957927445262597,
            0.09829440092564533,
            -0.8053299400855284,
            0.6642283020136948,
            -0.09933869759259947,
            1.0976326133287555,
            0.5966513598253699,
            0.20673444796170598,
            1.1493504242495283,
            -1.1235203733145542,
            -0.11294027545145091,
            1.0587365901521877,
            -0.3282242296444764,
            -0.5825979465672027,
            0.5400415466094414,
            0.8140028505299799,
            -1.0806045350257962,
            -0.8132045970710164,
            0.6871443071211825,
            -0.4615608287792901,
            -0.15504236118790124,
            0.36372886146074684,
            0.33038841019316423,
            0.2946189654080433,
            -1.2778042772290805,
            -0.23834405395930147,
            0.3875592769412344,
            -0.9279211658089458,
            -0.123979021751085,
            0.09860614382245483,
            -0.08578699564209556,
            -0.9485826296197335,
            0.08891719531899119,
            -1.4475503601905328,
            -0.3481144049464536,
            0.019338917357816746,
            1.0938857789195426,
            -0.01817868079963862,
            0.9074236890222199,
            0.6738163445577344,
            0.11679175122602767,
            -0.44916818093964955,
            0.2644899452254614,
            0.857240906329724
          ]
        },
        {
          "threshold": -1.055877151354621,
          "weights": [
            -0.5963083247203265,
            0.031352152911969244,
            0.3194313165809847,
            -0.4701586263443005,
            0.5034494960784143,
            0.19326531768527255,
            -0.4229239842387644,
            -0.7519274101143864,
            0.04608218310961333,
            -0.06839465706812983,
            -0.9839471539543271,
            0.39064084602110416,
            -0.467276961958998,
            -0.6734999729667227,
            -0.1376417176640904,
            -0.01679593983360098,
            -0.8172286845216443,
            -0.9854551135458809,
            -0.3581233200846953,
            0.5215160406329866,
            -0.5840762703755282,
            -1.1681184782098464,
            -0.754549352295583,
            -0.5255550680298101,
            0.3422568733347402,
            -0.790720520218188,
            -0.6955178078467177,
            -0.06154450917632135,
            -0.8970459324531231,
            0.5086078402899784,
            -1.1559788787562386,
            -0.5749703651332694,
            -0.5365191307666043,
            0.21306219701519327,
            -1.210607533317146,
            -0.16386645327179672,
            -0.8115394954982301,
            -0.45632988842022915,
            -1.4091797379417346,
            -0.5901096173939415,
            0.3014627804627941,
            -0.16176658531472515,
            0.4643163794653523,
            0.3213952748610561,
            -0.1960066162534559,
            0.0943044999531155,
            0.10332400558494567,
            -0.9606061713484056
          ]
        }
      ]
    },
    {
      "neurons": [
        {
          "threshold": -1.4267898874058582,
          "weights": [
            2.2428740533332,
            -1.3668864557046685,
            -3.6772045218971368,
            -0.9359354285928698,
            1.0784282833681689,
            0.8215669520642725,
            0.5389129199497673,
            -2.0791236755919114,
            0.6671677184219689,
            0.17269998060097855,
            -2.054698209314422,
            -1.2203615637500127,
            1.7914893563367162,
            0.9255430462148241,
            -3.443494085406386,
            -0.3664879499868879,
            4.4547511459891815,
            -1.3555839678892225,
            -1.602157975951158,
            -0.12713529151810343
          ]
        },
        {
          "threshold": -2.193368748382995,
          "weights": [
            2.8111211365584117,
            -2.172907289405499,
            0.07862740972278498,
            -0.18554237904960047,
            -3.469435400765892,
            1.3149827652789345,
            0.7981921148976365,
            -2.518545680590586,
            -0.633595666235034,
            0.5797000955697266,
            -2.695954596598436,
            -1.877979945966918,
            4.998452220944788,
            0.1423282854718893,
            1.5307062523974169,
            0.08167595030531914,
            2.539848226550075,
            2.7571855078481624,
            -2.5563169599575963,
            0.10022954010399167
          ]
        },
        {
          "threshold": -1.757649558577712,
          "weights": [
            -3.4506380041943405,
            -0.9254119893004783,
            1.9524050898063,
            0.6159470763359904,
            3.106163076781368,
            -3.476170627891948,
            0.6998516017874381,
            -1.8276257696612837,
            0.6406596268740408,
            -0.7301294951839742,
            -2.4090134037004067,
            -2.1182688241018437,
            -2.3336281215322154,
            -0.6245138056356189,
            3.0124044804978576,
            0.17209797867106255,
            2.432071453267083,
            2.8373260518136023,
            -1.518520232969659,
            0.5719903342195477
          ]
        },
        {
          "threshold": -1.2935932549609224,
          "weights": [
            -3.859530411073519,
            -1.6078443342098212,
            -0.20580394106655553,
            0.2385632597132294,
            -6.2782929758258375,
            4.431453347789218,
            -0.6427827746120017,
            -1.214020259028145,
            -0.485417041086715,
            -0.7603789386581408,
            -0.4999953622976005,
            -2.2715480372050534,
            -3.3591218236624703,
            -0.01805160367376096,
            3.492403688213407,
            0.01698643813490727,
            3.237899479366854,
            -0.5789149300849337,
            -0.18479719237150102,
            0.5904334216172611
          ]
        },
        {
          "threshold": -1.26927433990136,
          "weights": [
            -4.548385302397825,
            -1.7054343896574888,
            3.063812993160974,
            0.6020927165234446,
            3.7945162283955,
            2.647182552869143,
            -0.7177305805168375,
            -1.9485179979138567,
            -0.459089607304827,
            -0.10490334634165262,
            -1.579730376120709,
            -2.764489388507459,
            -5.739076870841124,
            -0.3583566205603385,
            2.456498020624493,
            -0.8003925884687062,
            0.6035806986745909,
            -4.535378374380017,
            -0.13815127355453574,
            0.3118830945828161
          ]
        },
        {
          "threshold": -1.0202764595899418,
          "weights": [
            -1.7772102768640845,
            -2.052058116777793,
            2.808340007368474,
            0.6225143134017962,
            -4.485734033544074,
            4.033902339599255,
            -0.9510227647046189,
            -1.3163171894947723,
            0.06380496625887455,
            -0.30558626067160494,
            -1.9864946950603846,
            -0.35000425105101884,
            2.5465206960240825,
            -0.3492317103708121,
            -4.196766399311286,
            -1.0200415214858063,
            2.697223728557025,
            -4.310518510402946,
            -0.857489404044298,
            -0.5646415542509183
          ]
        },
        {
          "threshold": -2.1662894231757446,
          "weights": [
            -2.286378580897313,
            -2.61314200090901,
            4.0125890260423756,
            0.07008005279817951,
            3.1567514036335784,
            1.9982233769206783,
            0.6592367930265638,
            -3.1487853996186677,
            -1.0007503518327248,
            0.053446535427589356,
            -2.9519375894593898,
            -3.3236535280686605,
            5.302000357096445,
            0.3581689378649711,
            3.701087302170867,
            -1.0654003085331998,
            0.7167376787703742,
            -2.8699237489933727,
            -2.900592896728981,
            -0.921590966646096
          ]
        },
        {
          "threshold": -1.4984645572990216,
          "weights": [
            -2.9187148744545017,
            -0.8704426656998449,
            3.1815743439316853,
            0.6119709176490183,
            -1.7590155350101693,
            3.345166261741937,
            -0.5424458032538212,
            -1.146174339091078,
            -0.34436525241966914,
            0.5888089652726726,
            -1.510041826894048,
            -1.572572178287516,
            -3.896919383185206,
            0.561480315941763,
            -5.658388736316951,
            0.6407702649308223,
            2.1554416374596226,
            2.8754885444708957,
            -0.43977156791751304,
            -0.4650912725789834
          ]
        },
        {
          "threshold": -0.20815939478488327,
          "weights": [
            -4.968297476096051,
            -0.22228646481046416,
            3.735638807470798,
            -0.8672666226433651,
            -3.145221318384444,
            -3.278730629464972,
            0.07204852691022548,
            -0.2333007002130114,
            -1.0714329624872323,
            0.6543625793668465,
            1.0091112231829877,
            -0.06798563435305008,
            -5.768187057234033,
            0.508276372086897,
            1.5634186526042113,
            -0.4654504842551885,
            -2.507652457406682,
            -4.361837356589411,
            -1.1685324335762426,
            0.5139460300711165
          ]
        },
        {
          "threshold": -1.0017515787375146,
          "weights": [
            -1.9181670114159162,
            -0.3124389227158579,
            -5.751210477444165,
            -0.9605007037609659,
            -5.481692364325052,
            -2.8455466576927573,
            -0.9860318149832531,
            0.001742563188207258,
            0.5676710389755255,
            0.4684493435318584,
            0.7488181830249588,
            0.09481986904529094,
            4.333950041995597,
            -0.29202900147483773,
            -2.30221950973046,
            -0.32593174676152487,
            1.6601502150916254,
            -2.7238287126648606,
            -0.4908846651463602,
            0.17293553305949116
          ]
        },
        {
          "threshold": -3.127303481228468,
          "weights": [
            5.13528677640824,
            -2.461690626008096,
            3.079169127193111,
            0.4610146243151413,
            3.4949740055724177,
            2.4851275410528872,
            0.6728588461579458,
            -2.5068095006316717,
            0.6687851428390164,
            0.1794229346010076,
            -2.9180980494784583,
            -2.133733360097315,
            -2.28075451629188,
            0.559702176540721,
            2.031055882388272,
            -0.1298615881258484,
            0.9454699101219288,
            -0.22626081662372077,
            -2.917586105342512,
            0.23948387109941255
          ]
        },
        {
          "threshold": -0.5086466798054422,
          "weights": [
            -2.608031833984824,
            -0.5959847035702858,
            4.523283378787516,
            -0.2112669745484445,
            1.57221959696174,
            1.7139661035879048,
            0.7201671044155417,
            -0.6804671781961419,
            0.6810871606183233,
            -0.2183808628453972,
            0.052210079876320634,
            -0.33731956202356306,
            -2.9599479989996844,
            0.3908191770101947,
            -5.14939408496971,
            0.548167656703227,
            -4.031465672256684,
            -5.672337758128303,
            -1.067783467479364,
            -0.6468261282794876
          ]
        },
        {
          "threshold": -1.6880079700280823,
          "weights": [
            -3.3615626310693605,
            -1.3005441374758933,
            -4.231697292486052,
            -0.833583415676293,
            3.337266534073308,
            -4.617279556222794,
            -0.9631454280946219,
            -0.9785667123898897,
            -0.08695369723264382,
            -0.728033654365252,
            -1.62617992701941,
            -1.0460635485980232,
            2.2135278201997046,
            -0.9568891227696399,
            3.2624260347559506,
            -0.004913059508346232,
            2.1495930674576105,
            -1.7552242428258473,
            0.03491492320955901,
            -0.1782546169221041
          ]
        },
        {
          "threshold": -1.069481803217247,
          "weights": [
            6.503620417175055,
            -2.1365562239572697,
            -2.785287740074232,
            -0.4253749813308906,
            0.30904358144618416,
            0.8105678027553124,
            0.3361531848562026,
            -2.7960758027726493,
            0.2862325625423863,
            0.6889437904219561,
            -1.69750305032239,
            -1.1501617493231187,
            4.806238582821155,
            -0.952921840977931,
            -6.295907720525183,
            -0.5658726233079289,
            -4.34811985324199,
            -1.6765603722734062,
            -0.7552860931272601,
            -0.3253591853544481
          ]
        },
        {
          "threshold": 0.4234466319072146,
          "weights": [
            -0.09810552328511807,
            -1.1188468203961457,
            -3.5733916363051947,
            -0.43490426614294136,
            3.535855120233312,
            -6.351233774378964,
            0.8364370311141958,
            -0.3985265824561561,
            -0.9016174632752715,
            0.9227453560644318,
            0.21644237033999422,
            0.36075898673528967,
            0.0888335897478639,
            0.2272228821502329,
            -5.113454025435079,
            0.13790525055411465,
            -4.18552266780566,
            -2.8449115792165944,
            -0.22941844493420288,
            0.2777368144296109
          ]
        },
        {
          "threshold": -0.45915088209970545,
          "weights": [
            -1.0240481088228646,
            -2.0862255092530124,
            3.8679140505780913,
            -0.30724228764196204,
            2.969591049917544,
            -4.102962472084652,
            0.8696189846205307,
            -1.3787642100768027,
            -0.5595346518706094,
            0.5724669062489435,
            -1.7741606828453063,
            -1.2532304248842536,
            3.227577450792767,
            -0.5789784857167418,
            -4.074369433294208,
            0.11288689184935194,
            1.9594119023277285,
            -5.639929634326352,
            -1.8511788501954523,
            -0.7358222884017598
          ]
        },
        {
          "threshold": -0.47074298592095437,
          "weights": [
            -8.821279236886276,
            -1.844069468661667,
            -3.9949895355891663,
            0.26851180736604935,
            3.269565359430779,
            3.8522883341851,
            -1.0544645452086134,
            -0.7420618501284395,
            -0.5693421276001378,
            0.4854549137010234,
            -0.847727055013379,
            -1.4497743625837152,
            1.7858807871622802,
            0.13799914530730056,
            -3.782570879715106,
            -0.7835092748492686,
            2.118248824776339,
            -1.4932957508712692,
            -1.13278852200126,
            0.07534959674649708
          ]
        },
        {
          "threshold": -1.9419198158875701,
          "weights": [
            7.0761064051176765,
            -2.5313619125134585,
            0.4411860206478077,
            -0.6564466990904918,
            -1.9485546346040223,
            3.3581924474246305,
            0.6257991578976517,
            -2.55992857108527,
            -0.3569471717832477,
            0.4389600154248172,
            -1.3060471838452772,
            -0.9954365908096264,
            -1.6213854513518506,
            -0.36908017719373276,
            -5.5291485809820555,
            0.21221716491120154,
            -4.296737584379343,
            3.6254086704178223,
            -0.9231401864118595,
            0.6135853059730318
          ]
        },
        {
          "threshold": -0.8758653477216976,
          "weights": [
            4.234737564105265,
            -1.579526003164949,
            -2.6833472161333476,
            0.8924938097457685,
            -3.052745079045699,
            -3.1279628690546613,
            -0.7611576580335532,
            -0.4462165341809793,
            -0.693661054688658,
            -0.034110644336960316,
            -1.7362872128462195,
            -0.9479662208737171,
            -3.406604578351909,
            -0.38349160406988086,
            3.1336657874618825,
            0.16833267036934432,
            3.632801019513602,
            -1.3910249602098763,
            -0.23357463683805454,
            -0.30774512855679437
          ]
        },
        {
          "threshold": -1.5724511886083834,
          "weights": [
            -2.181154543308841,
            -1.3468885313785348,
            -6.576085414847139,
            -0.6841229810076342,
            1.3214095375112618,
            2.7675013152079075,
            -0.2866842534149775,
            -0.42106863346030715,
            0.5886347484218155,
            -0.8787024356034325,
            -1.0578202689433664,
            -0.5020328610103816,
            -5.813155621056128,
            -0.4415848418664994,
            1.4001259520514624,
            -0.9301302088178037,
            4.680542206253339,
            -1.7579943075371196,
            -0.8554838343609762,
            0.7142586111889806
          ]
        },
        {
          "threshold": -1.2448606060235576,
          "weights": [
            -5.003574607836102,
            -0.5048466236029545,
            1.1247170830404742,
            -0.8559015078114953,
            0.15743550075702772,
            2.8741799256129563,
            0.18462755489063085,
            -0.846617626144775,
            0.767316165450384,
            -0.8236076319798373,
            -1.2533889780125937,
            -1.9422447165703478,
            -2.950989561357808,
            -0.17464592907273885,
            3.5305515339675466,
            -0.04603522112228109,
            -5.529719582104899,
            2.3462219077254596,
            -1.1669976434250862,
            -0.07463791129633311
          ]
        },
        {
          "threshold": -0.07254655682885117,
          "weights": [
            -0.31757899892403985,
            -0.4324048580858823,
            -1.7283612765230696,
            0.7640450348184591,
            3.1639527331055604,
            -3.2143769988403714,
            -0.1738294098820516,
            -0.4608399681332473,
            -1.0708836881076356,
            0.48906632939729305,
            -0.7119338476698809,
            -1.0448235288077257,
            -4.1532179384097585,
            0.2187664568782936,
            4.38716420131869,
            0.3987886477314177,
            -4.211188177958672,
            -3.3560213070969818,
            -1.379417654731722,
            -0.06242419860975725
          ]
        },
        {
          "threshold": -0.6523879846010091,
          "weights": [
            1.0053426602261593,
            -0.9837907187395877,
            1.402047107535764,
            0.4638552027672524,
            -5.600286606118879,
            -2.931607087201829,
            0.2429358378125517,
            -1.11373180934048,
            -0.3609004317213831,
            -0.9216917577863569,
            -0.5354174592642145,
            -1.2225058766337036,
            3.8161256666082646,
            0.534132945729762,
            -3.0391888635777,
            -0.5012940566408226,
            -3.8033921826028236,
            4.169829443766195,
            -2.233771634536883,
            0.5307093739082387
          ]
        },
        {
          "threshold": -2.0105227831343995,
          "weights": [
            3.5276371563672955,
            -1.1675962012250185,
            1.5542018848511534,
            -0.647241075769562,
            -3.2208183632200846,
            2.6633035730155328,
            -0.22016225303639086,
            -0.5691753590927289,
            0.5206577446491943,
            0.2949140545966638,
            -1.266791597996809,
            -1.7341091284517316,
            1.055144842775719,
            -0.36712937035158,
            2.844100949247369,
            -0.25400954411739163,
            -3.8940314301649748,
            -4.440237531118957,
            -1.395855978381283,
            0.15397394565285186
          ]
        },
        {
          "threshold": -1.9514982220165065,
          "weights": [
            2.2117745756757192,
            -1.9090830108085748,
            -4.376494682208143,
            -0.916955758026567,
            1.0728714958509693,
            0.811512885164542,
            0.12750885405062773,
            -1.2776016332672067,
            0.6266202213765915,
            -0.2608857080427766,
            -1.4814513551413655,
            -2.2915625327500444,
            2.4513681745038487,
            0.5633092884171662,
            -3.4869232415486753,
            -0.38271392640332635,
            4.501588026055939,
            -1.1157937075340771,
            -0.9808750279414093,
            -0.5355785414573873
          ]
        },
        {
          "threshold": -2.062100272141832,
          "weights": [
            -4.536780923688258,
            -1.1589676837433203,
            -0.3838509490151659,
            0.6808418939123361,
            4.462645588524016,
            -3.3722816652885648,
            -0.6218706635099668,
            -0.7540595090997603,
            0.1568051225698817,
            -1.1614369329539707,
            -0.7188919846033655,
            -1.2153310147994205,
            2.475427198734409,
            0.16891297368339178,
            -2.655593857105454,
            0.33101395635022474,
            -3.1936057162376854,
            4.73149328908099,
            -1.2500079331556728,
            0.6381618137862439
          ]
        },
        {
          "threshold": -2.6146323777260334,
          "weights": [
            2.989419438072328,
            -1.950578614831554,
            -4.8981901432666985,
            0.7714862677076285,
            1.3991439008594622,
            2.52878789539536,
            -0.03680162503438524,
            -3.019264898076196,
            -1.0453633349649967,
            0.7764203155372367,
            -3.0347807925782413,
            -1.4330520132576312,
            2.9643077717357627,
            0.48793941042293354,
            7.310978941928643,
            0.07149691220226252,
            -0.780640431054836,
            -1.3451587296532797,
            -1.6755636052899123,
            -0.18954341275734143
          ]
        },
        {
          "threshold": -1.6232087317676154,
          "weights": [
            -4.612221590472363,
            -1.64084178328502,
            1.8597968714501831,
            0.343315506257692,
            -1.7442571371133624,
            5.237012662023807,
            0.18722622216744936,
            -1.8234778664118272,
            0.6780644277104004,
            -0.26736175392967243,
            -0.13830218109953998,
            -0.509651132636167,
            4.350666841901538,
            -0.5896096158326709,
            -2.2409524361426434,
            0.33009303395587725,
            -6.409187924277716,
            -0.4745881172154004,
            -1.777113938580469,
            0.6255735616790413
          ]
        },
        {
          "threshold": -2.028970609073526,
          "weights": [
            -2.303059855665607,
            -2.069305928331723,
            2.3872554259549954,
            -0.39266684427374154,
            -4.886092097365222,
            -3.268401149827445,
            -0.9054660969731648,
            -0.6006393893673554,
            -0.504980562863378,
            -0.341690655030662,
            -1.4141382869927017,
            -2.3811098249505376,
            2.33594854574077,
            0.5463527091761752,
            4.416481764720955,
            0.35815332241553816,
            3.133073001067981,
            -3.6372746413073638,
            -0.20204648633072939,
            -0.03578627051841072
          ]
        },
        {
          "threshold": -0.6912664809412655,
          "weights": [
            2.0896646839653172,
            -0.91261113465938,
            -5.457551137850941,
            0.40690538308978225,
            -2.8755380082494337,
            -0.9241338193791437,
            0.7884772467736549,
            -1.10826956424796,
            -0.3959305231643568,
            0.541249106625021,
            -0.9485017111544045,
            -0.8865113748537732,
            -0.703736006146894,
            -0.12166476442963771,
            -4.686216505410519,
            -0.8634256975725234,
            3.4576401366496476,
            4.020635713170299,
            -0.10314187858173404,
            -0.20007727718554427
          ]
        },
        {
          "threshold": -1.2029937180099461,
          "weights": [
            4.479488318553361,
            -1.314892112403621,
            -2.959642017447801,
            0.4238214206532348,
            2.1100341659461765,
            2.7675697068085645,
            -0.4177908438957564,
            -1.1113667226291222,
            0.7670076830257965,
            -0.6958558364188203,
            -0.479432918454534,
            -0.788490751466645,
            -6.750768008542731,
            -0.6163898407197947,
            -2.790901296571521,
            0.6109894571659805,
            -2.1100803180162893,
            -2.7591666678860345,
            -0.3342189615112377,
            0.20557425718586098
          ]
        },
        {
          "threshold": 0.9678576317639084,
          "weights": [
            -2.4968178151275486,
            0.9905952648193558,
            -4.902273677719316,
            -0.22984416811015074,
            -3.7947865976313144,
            -0.6409659156957045,
            -0.9771864633026811,
            0.657308804442575,
            0.8859779638212876,
            -1.0035705734234297,
            0.6618633456117237,
            1.2441146832134735,
            -4.01961645582783,
            0.23753448140347982,
            -4.002134142874148,
            -0.33633553193261584,
            -4.2209121792692414,
            -0.5862978827208006,
            0.0781204910257041,
            0.4330228146298837
          ]
        },
        {
          "threshold": 0.07526561130431025,
          "weights": [
            5.017506770489847,
            0.2266423047663844,
            2.6462236334505413,
            -0.03442341751618487,
            -2.8490332420600635,
            -4.955698847804452,
            -0.7399196240876564,
            -1.2566011237793713,
            -0.10993906125489789,
            -0.07361364496915014,
            0.6255335085460526,
            -0.7368139248643105,
            -3.1614819040372835,
            -0.5251160792063427,
            -3.2964714944838076,
            -0.013160314154664423,
            -3.001781722533738,
            -4.022385303966947,
            -0.8872271066633867,
            -0.6171498244884932
          ]
        },
        {
          "threshold": -2.2439158001750714,
          "weights": [
            3.4108090223777006,
            -1.7364173675847758,
            1.6756853186568292,
            -0.3631304125713566,
            -4.029410374747343,
            -1.542973034475984,
            0.2713564168281807,
            -0.6222067207844423,
            0.6063200275343428,
            0.8524368919400014,
            -1.258802558461968,
            -2.3550077565399357,
            -3.6638039930068333,
            0.5179123054572373,
            3.0569432897036255,
            -0.23407874594841938,
            -4.356657879640131,
            4.360823587734781,
            -0.3834414435491935,
            -1.0094445568003478
          ]
        },
        {
          "threshold": 0.5370159567997965,
          "weights": [
            -4.464649526417256,
            -1.3088879341109143,
            -0.45054475099877567,
            0.5172479301963254,
            -5.461325119078997,
            -5.38379416564161,
            -0.20162565771921015,
            -1.07309112697833,
            -0.7802083306419829,
            -0.30023511791328955,
            -1.0826201402983235,
            -0.012477962818805116,
            -2.8472923219265684,
            0.7353942810896829,
            -0.044058781017092624,
            0.35155505013437116,
            0.03749216675656189,
            5.284868763754894,
            0.8780295791938394,
            0.5445981328659274
          ]
        },
        {
          "threshold": -0.6834893900138514,
          "weights": [
            2.7994272648894842,
            -1.5383353366522963,
            1.162438627283301,
            -0.13973323169967955,
            2.8976574530212154,
            -3.929178631659213,
            0.11676691242161147,
            -1.547959117685677,
            -0.33764677806920906,
            -0.4009904712026487,
            -1.4345146396778012,
            -1.1905729894943606,
            -4.20871746430507,
            -0.11667114328324335,
            -5.265103345284456,
            0.2045283412297527,
            3.02501927873839,
            1.0963891263962675,
            0.11821741566725694,
            -0.6783064187056206
          ]
        }
      ]
    }
  ]
}

